{"layers":[{"out_depth":1,"out_sx":24,"out_sy":24,"layer_type":"input"},{"sx":5,"sy":5,"stride":1,"in_depth":1,"out_depth":8,"out_sx":24,"out_sy":24,"layer_type":"conv","l1_decay_mul":0,"l2_decay_mul":1,"pad":2,"filters":[{"sx":5,"sy":5,"depth":1,"w":{"0":0.11297153100235327,"1":0.03599689514211721,"2":0.15086609132072495,"3":0.18363483850440876,"4":0.34906933089296155,"5":0.058844005018334374,"6":-0.2719667170251243,"7":-0.0758698381279749,"8":0.053665285900709264,"9":0.15945100530785755,"10":-0.1690903154180147,"11":-0.20416898493505706,"12":0.1813220412044745,"13":0.15091327370347013,"14":-0.016390397344930287,"15":-0.03235797170003437,"16":0.3192070289144017,"17":0.430761421272321,"18":0.6029196508971277,"19":0.3366014688179859,"20":0.04377990893316491,"21":-0.024973150310011138,"22":-0.10431932128214925,"23":-0.7851654709843077,"24":-0.7605607079485034}},{"sx":5,"sy":5,"depth":1,"w":{"0":0.01710800735187791,"1":-0.1500801513343617,"2":-0.2709038617502021,"3":-0.24860928664434176,"4":-0.30436314714277046,"5":0.27696798630974645,"6":0.24063633646209923,"7":-0.13252403410297323,"8":-0.28189277537878465,"9":-0.25036463125835334,"10":-0.09875176930817915,"11":0.23766865232521403,"12":0.08152464854290754,"13":0.392860160729275,"14":-0.3606191072137092,"15":-0.04420198676614455,"16":0.12757390901221258,"17":0.038764277719886706,"18":-0.097834764394965,"19":0.04073918581309058,"20":0.10967319519730623,"21":0.39744995899543467,"22":0.2704591776306302,"23":0.33592743968515526,"24":0.1625386197024036}},{"sx":5,"sy":5,"depth":1,"w":{"0":-0.1727378158979019,"1":-0.12291532308771426,"2":-0.32312928220669007,"3":-0.273223860188257,"4":-0.07540234041728341,"5":-0.23866158903812668,"6":-0.48079010388556415,"7":-0.38903773690749577,"8":-0.3164143807179464,"9":-0.11070580208946043,"10":0.6012645228862958,"11":-0.035437378346904386,"12":0.11829766613339647,"13":0.37329758334571844,"14":0.24923740941823266,"15":0.4102023615836212,"16":0.45180848588905925,"17":0.10816076952794329,"18":0.0853100802476902,"19":-0.11488781513019602,"20":-0.2596194482981188,"21":0.06108675991538039,"22":0.085306363679533,"23":-0.23319132716497146,"24":-0.15157057466338528}},{"sx":5,"sy":5,"depth":1,"w":{"0":-0.5993974164050136,"1":0.31915575485355524,"2":0.20870016051193252,"3":-0.3398161716613938,"4":-0.35520398968438044,"5":-0.18911125325946615,"6":0.06577623928468672,"7":-0.14601759487469612,"8":-0.1560013914979726,"9":-0.4231892978681108,"10":0.3215330897942597,"11":0.007623607650758411,"12":0.32748530744775706,"13":0.3256646328604357,"14":0.5601848075295635,"15":0.08300581311721365,"16":0.12752904652847685,"17":0.10400909231843104,"18":0.31317409540474483,"19":0.636036142901569,"20":-0.21123168039350443,"21":-0.04555954113745693,"22":-0.4530120818024503,"23":-0.16998408636934018,"24":-0.7243212397448074}},{"sx":5,"sy":5,"depth":1,"w":{"0":-0.017112661227295392,"1":-0.1681565185405814,"2":0.1597481142061139,"3":-0.4406380949942675,"4":-0.11624791346144962,"5":0.2124857101636062,"6":0.6191026292531121,"7":0.3580944410204654,"8":-0.13731430157877175,"9":-0.71449256392076,"10":0.32973177002390663,"11":0.545938767675097,"12":-0.27098127047514897,"13":-0.4308138971922921,"14":-0.2843641586716283,"15":0.004447837081292683,"16":0.2479929947450201,"17":-0.2517474275423056,"18":0.03805232772672226,"19":-0.11075208930022894,"20":0.4963807066410031,"21":0.336439627914488,"22":0.139038062923518,"23":0.07759996371741125,"24":-0.15448204586811676}},{"sx":5,"sy":5,"depth":1,"w":{"0":0.3166306122942173,"1":0.1351412332250287,"2":0.2660697806514272,"3":-0.09725066508297214,"4":-0.13144408705389707,"5":-0.16792523800630127,"6":-0.3759575750247367,"7":-0.8315144653449373,"8":-0.46058940160232237,"9":-0.399546635501461,"10":-0.583243006103459,"11":-0.4638663429086509,"12":-0.3571690972563463,"13":-0.37808376477400607,"14":0.10411100257067775,"15":-0.6613665726356741,"16":-0.2641004621984486,"17":-0.049837222598392086,"18":0.37127567699099084,"19":0.2617319065461979,"20":-0.1912442485654735,"21":0.33119296615684624,"22":0.4147402335195519,"23":0.39395526242593076,"24":0.4333118392762604}},{"sx":5,"sy":5,"depth":1,"w":{"0":-0.05566389652385427,"1":0.2170777768969603,"2":0.44112655249626653,"3":0.7261774742376872,"4":0.880135730685534,"5":-0.5034032043828789,"6":-0.06959481050280097,"7":-0.21430125574478245,"8":-0.047052329827369045,"9":0.4723283119988915,"10":-0.361498844652861,"11":-0.42226638214505907,"12":-0.39951268613968005,"13":-0.4581101926287713,"14":-0.12277530382353526,"15":-0.26172401370495224,"16":-0.6136323628691738,"17":-0.37187900533987034,"18":-0.43928599877872815,"19":-0.35975886097874915,"20":0.245394607855689,"21":-0.015069597148997988,"22":0.0016981140457696204,"23":-0.27509052065412276,"24":-0.19605692660906257}},{"sx":5,"sy":5,"depth":1,"w":{"0":0.03543562939461686,"1":0.010247505922906675,"2":-0.29213995706206153,"3":0.32447663804322896,"4":0.07701923332622972,"5":0.10676791393995223,"6":-0.15901697606163245,"7":-0.1020066351302107,"8":0.14586747693728755,"9":0.35217673470617855,"10":0.10348213018827158,"11":-0.07251750232155953,"12":0.1336474302406809,"13":-0.20411151638173983,"14":-0.0319395608012799,"15":-0.10349064257184222,"16":-0.11345173350345403,"17":-0.022130606777206692,"18":0.10581319636203457,"19":0.4209459594622524,"20":-0.34039291331929666,"21":-0.40888895598915936,"22":-0.29436951046889254,"23":0.11297916539774336,"24":0.4588797711254965}}],"biases":{"sx":1,"sy":1,"depth":8,"w":{"0":-0.00434863228490094,"1":-0.16551060873038556,"2":0.0016256706154713896,"3":-0.04060179527485529,"4":0.01167845915609103,"5":0.05990087081682664,"6":0.23773230970892525,"7":-0.22500966693456367}}},{"out_depth":8,"out_sx":24,"out_sy":24,"layer_type":"relu"},{"sx":2,"sy":2,"stride":2,"in_depth":8,"out_depth":8,"out_sx":12,"out_sy":12,"layer_type":"pool","pad":0},{"sx":5,"sy":5,"stride":1,"in_depth":8,"out_depth":16,"out_sx":12,"out_sy":12,"layer_type":"conv","l1_decay_mul":0,"l2_decay_mul":1,"pad":2,"filters":[{"sx":5,"sy":5,"depth":8,"w":{"0":-0.15160862285951598,"1":-0.01514811135210956,"2":0.3015259531554628,"3":0.0628788008859643,"4":0.005528804817736289,"5":0.12461260171791437,"6":-0.25278949783481297,"7":0.08664028949673774,"8":-0.3042384643375751,"9":-0.15607460146772711,"10":0.1338442470895016,"11":-0.035676545935104144,"12":-0.1487164512726249,"13":0.02217196566935023,"14":-0.05926817685072787,"15":0.09405060016383461,"16":-0.08983532062871999,"17":-0.01874002260589485,"18":-0.017238138680247973,"19":0.024586265196305756,"20":-0.1186585569529938,"21":0.10092134095037042,"22":-0.12502533132543003,"23":-0.16265529127992684,"24":-0.18571145241371131,"25":-0.07476645608098985,"26":0.14407921926587428,"27":-0.20107183560070346,"28":-0.09102703935105379,"29":-0.11879323157812441,"30":-0.24220610878027923,"31":-0.2385860068398092,"32":-0.410603425803165,"33":0.045490550705459154,"34":0.03633660758186192,"35":-0.2020566378186166,"36":-0.13661066156668114,"37":0.1035332676292871,"38":-0.07438496734181896,"39":-0.07401788327860638,"40":0.007501324187202702,"41":-0.022282130251128303,"42":-0.14760943604595578,"43":-0.09093593662358515,"44":-0.026980621680261104,"45":0.06001074002495909,"46":-0.050234005510098906,"47":0.16396471356978107,"48":-0.039102231515102004,"49":0.11620712393371767,"50":0.03101610895719839,"51":0.061906100123323565,"52":0.11278314505609592,"53":-0.03421058118459405,"54":-0.17050265563542474,"55":0.11233004247440473,"56":-0.10785618880019325,"57":0.10046747429727165,"58":0.014326760513814011,"59":0.2004956917739271,"60":0.09594317172017439,"61":-0.13327049438157282,"62":-0.02011989142587814,"63":0.23085607010069337,"64":-0.276309161764804,"65":0.22830781471593467,"66":-0.009887027010488134,"67":0.020087964322263827,"68":0.09882637709471473,"69":-0.002757795190638786,"70":-0.06873067222739562,"71":0.057051231643692926,"72":-0.1534918507064772,"73":0.18080286355792727,"74":-0.09254868622684381,"75":-0.10883360928387031,"76":0.041761080520961884,"77":-0.016048626465353207,"78":-0.20314312830458436,"79":-0.002833607006934637,"80":0.20951594547694613,"81":0.005662674299582698,"82":0.03534318577517444,"83":0.05496030319135573,"84":-0.023873872063831642,"85":0.00895537976152565,"86":0.055529168475174764,"87":0.23132915960489636,"88":0.15198906033251877,"89":0.11371655420586016,"90":0.07608683700403632,"91":0.29913196101177886,"92":-0.0006795098193301231,"93":-0.2451593415906331,"94":-0.17292998293774406,"95":0.19318295569623883,"96":0.2989642230795974,"97":-0.03293213071768305,"98":0.13692829904506787,"99":0.20695406147361062,"100":-0.040816278985490916,"101":-0.2098717801049267,"102":-0.02897087835195801,"103":0.04219217998656279,"104":0.08996888729717746,"105":0.07993398601624056,"106":0.040681250742579084,"107":0.11143369253252082,"108":-0.19413577353492947,"109":-0.3004820052788906,"110":-0.012112532341813241,"111":0.13014344105873069,"112":0.30007559700069264,"113":0.037592498893742464,"114":0.07657968100807445,"115":0.06219085594589965,"116":-0.04098755164661204,"117":-0.2493997846846953,"118":-0.17708827506273228,"119":0.12258536764872445,"120":0.14227492519035131,"121":-0.25102612590241835,"122":-0.12851005930917453,"123":-0.04879271263432476,"124":0.11129692824955248,"125":0.04904067449756195,"126":-0.06822978091535131,"127":-0.08437845977237285,"128":0.08511707161357579,"129":0.04978038025493246,"130":-0.23176627201456754,"131":0.06429621106739138,"132":0.05346662097405953,"133":-0.08693422062282993,"134":0.017148780730068064,"135":-0.11020375593446809,"136":-0.061724419266743116,"137":-0.08682414794839687,"138":-0.1568733789246921,"139":0.18620021886134938,"140":-0.11525270291455095,"141":-0.09026226426027532,"142":-0.1341239025768844,"143":0.048276740024668564,"144":0.144818303070598,"145":-0.11674468406335427,"146":-0.052480248262658125,"147":0.019313757240847756,"148":-0.4801639420743821,"149":-0.02681721221088512,"150":-0.30271487703774824,"151":0.09713014303246884,"152":0.057463778902344276,"153":-0.0852206157378105,"154":-0.18173795948839241,"155":0.022119222564769028,"156":-0.17802366304499137,"157":-0.06326049674398412,"158":-0.35778940722019176,"159":0.08928805555239568,"160":-0.03520733629540907,"161":-0.09136341019690189,"162":-0.10173913196926956,"163":0.08924797886898835,"164":0.13595788476725645,"165":-0.10779977553681519,"166":0.1386319844823127,"167":0.06574009158779977,"168":0.08580179935513033,"169":-0.08100400535312713,"170":0.08021790365086849,"171":-0.08421811795913833,"172":0.008637033659184001,"173":-0.011353585994759094,"174":0.0027889204233266553,"175":0.008762056831766809,"176":0.01887698434187549,"177":-0.37592300623108993,"178":0.08361021444962212,"179":-0.18776304017830653,"180":-0.31722709440543223,"181":0.1500813925033047,"182":-0.005963396670581053,"183":0.042749625396303184,"184":0.15387151192510853,"185":-0.27453579373545256,"186":-0.13253503803474992,"187":-0.13377536544598337,"188":-0.02599674283959769,"189":0.10650820007747755,"190":-0.15529435022777155,"191":-0.03443855137336987,"192":-0.042386178745613665,"193":-0.13354160624513314,"194":-0.1769635898315765,"195":-0.17929017076117457,"196":-0.12062270746298243,"197":0.012644359313636623,"198":-0.37447307664415824,"199":-0.03814999636287416}},{"sx":5,"sy":5,"depth":8,"w":{"0":-0.19476561131463024,"1":-0.17384264522047632,"2":-0.10131686418229113,"3":-0.2110565738621891,"4":-0.07358753811886179,"5":-0.045387104706705775,"6":-0.18910662889503224,"7":-0.08858308055263855,"8":0.04386663711597919,"9":-0.046454902635340654,"10":-0.08610262207646154,"11":0.06397033078694073,"12":-0.17242433183247108,"13":0.013681769753409723,"14":-0.08422441342621097,"15":0.15712616153335518,"16":-0.02503921271176848,"17":-0.1262854845709659,"18":-0.12529873932371532,"19":0.05550219928599462,"20":-0.00596076684795252,"21":-0.09551738483367311,"22":-0.14571887977026202,"23":0.033416409239621025,"24":-0.04721990154860471,"25":0.12826296363761167,"26":0.07207514554760165,"27":0.17071347280075838,"28":-0.023072506296802704,"29":0.19545272569664798,"30":-0.21553585817899823,"31":-0.059661513700691345,"32":0.017126954330009804,"33":0.1511287283781312,"34":0.1427531938424359,"35":0.11910721799282964,"36":-0.22416008691375822,"37":0.01352526575292518,"38":-0.30688181236177553,"39":0.06285065850375705,"40":-0.1142776992636168,"41":-0.18634390437193968,"42":-0.2159474358044498,"43":-0.09541164662247635,"44":-0.3071688753489435,"45":-0.1026756217854046,"46":-0.03214976574307426,"47":-0.06467676822935672,"48":0.04110330118600667,"49":-0.2620043085860428,"50":-0.10821877458491877,"51":0.19558544261788677,"52":-0.2586848539359717,"53":-0.16381219059204982,"54":0.026785865505511035,"55":0.003952368110564293,"56":0.06978989101726753,"57":0.034219242220286,"58":0.002238013977479474,"59":0.2300669866623011,"60":-0.15861199570244175,"61":-0.06256671705775846,"62":0.03222781196376215,"63":-0.007866012058451747,"64":0.13968155170588584,"65":0.01687154603227852,"66":0.13181997055569722,"67":0.2444470917360341,"68":-0.3252380897670172,"69":-0.3036416059774103,"70":0.04379898030946696,"71":-0.013145025346545488,"72":-0.08955421813162744,"73":-0.04563672820733283,"74":-0.045982600420323975,"75":0.03279431796829846,"76":-0.32441047327146416,"77":-0.54787434666952,"78":0.12344156756065766,"79":0.30184435687003786,"80":-0.23916844258704467,"81":-0.005671531025079704,"82":-0.0459118896237683,"83":-0.1162907184962991,"84":-0.3001987747600611,"85":-0.08402373180797747,"86":-0.01597886342091929,"87":-0.03728478621040656,"88":0.03780052704089418,"89":-0.07808490524707247,"90":0.025604010311105825,"91":-0.1647079890572926,"92":-0.20279710684202887,"93":-0.12347927507298223,"94":0.18177608633438525,"95":-0.07607769569468494,"96":0.018942829354829625,"97":-0.17696834042018447,"98":-0.08705368551280579,"99":-0.16836383128119917,"100":-0.23685606819264032,"101":-0.24577882946708882,"102":0.17023712290966603,"103":-0.09952741817164559,"104":0.07907783002834769,"105":-0.1370391777320152,"106":-0.07417195350220612,"107":-0.31543909788827745,"108":-0.31652481974373203,"109":-0.1497644610751163,"110":0.17540770346717605,"111":-0.10159676274873253,"112":-0.08210073703895171,"113":-0.1463463432719498,"114":-0.2635258436357117,"115":-0.2146929358191962,"116":-0.3432450885519422,"117":0.06056200792562674,"118":-0.06635753454394616,"119":0.2485286434413322,"120":-0.024478497051226223,"121":0.04545052565786855,"122":0.152666856914156,"123":0.06731146935111139,"124":-0.12909750840356798,"125":0.11793007598382935,"126":0.09198327888576555,"127":0.024415061483439842,"128":-0.0705314491313793,"129":-0.1090239990934128,"130":0.12196409645883462,"131":0.06772065202944688,"132":-0.16075486637397893,"133":0.11423397006486713,"134":0.1510816261372554,"135":0.06949225139663308,"136":-0.10814030061203796,"137":-0.09027912373604659,"138":0.024074369985437005,"139":0.08034706051827616,"140":-0.20641878464654706,"141":0.2678964661741366,"142":0.009934857356119594,"143":0.06408832213138792,"144":0.0078587057279775,"145":0.005366168163556418,"146":0.10271433598052854,"147":0.06580844964125722,"148":-0.13846297327208976,"149":0.27229414394570006,"150":-0.2711401069819169,"151":-0.022020517847841255,"152":0.17770285365187197,"153":0.009782280881403784,"154":0.13649862047940037,"155":0.12420915674179299,"156":-0.17000730511773982,"157":0.2058897816167585,"158":-0.15089785195148275,"159":-0.015142127841562405,"160":0.041975818057641126,"161":-0.15050433114781453,"162":-0.022707582426899426,"163":-0.009654896469119822,"164":-0.07648021726456267,"165":0.07520055960911479,"166":-0.11173197753468511,"167":0.07117989300150582,"168":0.0896554343222202,"169":-0.04752385328488679,"170":0.09335169336928097,"171":-0.024328596215021196,"172":-0.02664365978716218,"173":0.09794605617819917,"174":-0.21032513512905798,"175":-0.02269860014690712,"176":0.21267231276286705,"177":-0.0025722030480005917,"178":-0.01965610431884846,"179":0.19064697284318646,"180":-0.16440364326457507,"181":0.020532796689570167,"182":-0.19878325901037897,"183":-0.0941862770593327,"184":0.17678517216005932,"185":-0.0016364522251326404,"186":0.07438607284024801,"187":0.16158968797032836,"188":-0.06859324352528046,"189":0.031681480470082395,"190":-0.1924736683131575,"191":0.04554763711331331,"192":0.13634974675437647,"193":-0.050387040018226165,"194":-0.023779202318602113,"195":-0.02039155343360204,"196":0.1020316666796554,"197":0.06390370846204267,"198":-0.26316123188465645,"199":0.09352355593464698}},{"sx":5,"sy":5,"depth":8,"w":{"0":-0.17189112388212857,"1":0.11589845226973354,"2":0.007405083921496079,"3":-0.2056361296570941,"4":-0.047781913314594596,"5":0.07039356195488895,"6":-0.2447276886344391,"7":-0.015716031487562326,"8":-0.2612338989890623,"9":0.0014445231147831852,"10":-0.09069641004791525,"11":0.03727535816519303,"12":0.024571964321089917,"13":-0.06134366339871102,"14":-0.01693274616696543,"15":-0.13504198372363624,"16":-0.2592875222626872,"17":0.042183679336798945,"18":-0.09823272494079242,"19":0.012271768662575667,"20":0.01656020555472293,"21":0.13371168829911348,"22":-0.2376219461722365,"23":0.09298512890120035,"24":-0.14124378593771414,"25":0.018307016228290646,"26":0.119390609755574,"27":0.08432102060667343,"28":-0.15875724133867297,"29":0.2527459974830844,"30":-0.136801587794064,"31":0.08371735839758675,"32":-0.03596339004589788,"33":0.1253551531992932,"34":0.05823519187147921,"35":0.2386301819066081,"36":0.10968374033528527,"37":0.19123085053150307,"38":-0.1665970932834299,"39":-0.0447379538970931,"40":0.07520670873922905,"41":-0.026894560486130085,"42":0.04372541113206622,"43":0.20216504006589767,"44":0.11094092461105173,"45":-0.03758016412912391,"46":-0.343673204754009,"47":-0.025879382453325828,"48":-0.04066558890191873,"49":-0.044490424496284695,"50":0.030778292345673714,"51":0.23306240942359055,"52":0.014655185329326735,"53":-0.03634032450622652,"54":-0.23603536517644044,"55":0.05786345074009412,"56":0.19022922587867624,"57":0.0703195779487995,"58":0.20189336160218802,"59":0.2005115517871589,"60":-0.09948568722636085,"61":0.14329400980246182,"62":-0.1684194103592728,"63":0.06308317657562558,"64":0.24292707820251447,"65":-0.03446988702814686,"66":0.14583568385460655,"67":0.22710792100238755,"68":0.15184082341338773,"69":0.08799731471009449,"70":-0.09166250716566107,"71":0.08457588584960109,"72":0.34508429746820496,"73":0.06641639876427095,"74":0.14349608747808196,"75":0.22465422283520825,"76":0.24887230605588664,"77":0.07754750330460622,"78":0.05086779758037475,"79":-0.0950998494723846,"80":0.1001974192197709,"81":-0.10103371874053993,"82":-0.011582890882701164,"83":-0.11606029469557405,"84":-0.049291079776042114,"85":-0.31906504581806605,"86":0.15296213629389527,"87":-0.12700117894003665,"88":0.11719094513143667,"89":-0.052455851270416895,"90":-0.03662491051612161,"91":0.2519942181132174,"92":0.13474203696659845,"93":-0.33004400168218156,"94":-0.015315885224268586,"95":-0.11101605732792309,"96":0.05976466151908918,"97":-0.10756714121570013,"98":0.1686702112308081,"99":0.010910800506716944,"100":0.09606406732948419,"101":-0.05259907819665818,"102":-0.03489624554783064,"103":-0.13946054151464135,"104":0.1788348052330173,"105":-0.11644938450527548,"106":0.1703244865341128,"107":-0.08370504280951878,"108":0.21039197621871253,"109":-0.07459993073366086,"110":0.12776076312628692,"111":-0.23468440994514983,"112":-0.14716064749014995,"113":-0.17308003479809134,"114":-0.02605923815716939,"115":-0.2553031586665269,"116":-0.09180393057414507,"117":-0.02862788707423006,"118":0.0011751373916340105,"119":-0.2864886086450113,"120":-0.17530867327459745,"121":0.04006425269958829,"122":-0.19095199947569133,"123":-0.1801157802161739,"124":-0.06882459495870619,"125":-0.2914836252139335,"126":-0.03910409924794789,"127":0.046895619119603785,"128":-0.1779375615717006,"129":0.021049825071251027,"130":-0.24612473781686778,"131":-0.14418831735056162,"132":-0.07808729324693763,"133":-0.18251798080600376,"134":0.19687777160333744,"135":-0.047348864657482524,"136":-0.06616408431292994,"137":-0.20654529115164794,"138":0.023617787042773473,"139":-0.07623656439386371,"140":-0.18189023366474677,"141":-0.010364888192204734,"142":0.2317604829478415,"143":-0.115928063383032,"144":-0.2315327138890146,"145":-0.13894539650871837,"146":-0.05326646798963421,"147":-0.2523046161809189,"148":-0.2996235021156712,"149":0.26871211980426096,"150":0.3076572824288892,"151":-0.3448328854363978,"152":-0.35294542286749025,"153":-0.3074565835994787,"154":-0.01791032969298355,"155":-0.376345032890023,"156":-0.3233953818536595,"157":0.4087496079019498,"158":-0.0798934706948774,"159":-0.21796481162231154,"160":-0.20093785684094362,"161":-0.059454662853489555,"162":0.03907569726011822,"163":0.038763670000981305,"164":0.03686145040174326,"165":-0.2762198704129375,"166":0.04188354638216829,"167":0.05036503941284163,"168":-0.05548127918669926,"169":0.013066475380243624,"170":0.1478508811329146,"171":0.02577772042999509,"172":0.013251323174611465,"173":-0.12945652400065213,"174":-0.0009140194139309255,"175":-0.021743526686358313,"176":-0.1337316674722595,"177":0.05290193330935149,"178":0.11222151627140232,"179":-0.04001794634422284,"180":0.027943596744090506,"181":-0.11924949497271864,"182":-0.05020459400068354,"183":-0.05827750072689743,"184":-0.31309530512606665,"185":-0.05307934522184827,"186":0.11269950687073212,"187":0.0049360137715215415,"188":-0.14699154989247065,"189":0.10573897046478682,"190":-0.1488378650316737,"191":-0.03818509372782888,"192":-0.21346913432632064,"193":-0.06747351792089648,"194":-0.001227299416505828,"195":-0.06794070032673095,"196":-0.11474516484240693,"197":0.2299050438497193,"198":-0.2481548111025581,"199":0.04841923482486848}},{"sx":5,"sy":5,"depth":8,"w":{"0":0.030408911289340833,"1":-0.00846678685510981,"2":0.08694158495439883,"3":0.014428977002881416,"4":0.17387931232684312,"5":-0.2522380369264977,"6":-0.13022139090668874,"7":-0.06545125941998642,"8":0.007988088949866691,"9":0.06277958736247849,"10":-0.081906391207445,"11":0.045485069971429475,"12":-0.016587021011565454,"13":-0.169901064823803,"14":-0.19191418608016955,"15":0.30515742746005514,"16":0.14596685163847725,"17":0.12644813299392335,"18":0.01763395099207145,"19":0.10730117279449056,"20":0.08364321491143976,"21":-0.13719934829307823,"22":-0.07527981156391675,"23":-0.020861593268539157,"24":0.28935002501254825,"25":0.14191983150783094,"26":-0.10070249271365106,"27":0.015360241235126174,"28":-0.05884521331832807,"29":-0.14810140707642033,"30":-0.1184929783034814,"31":-0.009820239906472716,"32":0.2469424754024816,"33":-0.046287323963125585,"34":-0.04031414100772206,"35":-0.013767293028052763,"36":0.04058755683198658,"37":0.04754962633579548,"38":-0.11988367423658616,"39":0.11857474606824536,"40":0.09696861900443712,"41":-0.08821501328957476,"42":-0.1048378995795782,"43":-0.021973900455135007,"44":-0.04945256269367233,"45":-0.16308495650714058,"46":0.11427307614893627,"47":0.1572616743995141,"48":0.19152857082703978,"49":0.13681331173616382,"50":-0.07265533267522989,"51":0.13424409585126215,"52":0.09900367183731393,"53":-0.1551219560838998,"54":0.16759735772193862,"55":0.12571370106178667,"56":0.17516347033880042,"57":0.05010853389710569,"58":0.10525554324174384,"59":0.2635243139466844,"60":-0.06667294523729018,"61":-0.2417629270662671,"62":-0.08991354880386833,"63":0.2590162977416767,"64":0.14579149342338316,"65":0.05764791938110769,"66":0.2639218727465907,"67":0.10280507519503293,"68":-0.016368786808008167,"69":-0.02025006770480599,"70":-0.039232464861305286,"71":-0.03214366744774343,"72":0.17955169914627364,"73":0.10934143765496211,"74":0.11100441620719319,"75":-0.06239340634651573,"76":-0.10494279196620812,"77":0.16315177650892146,"78":0.029841650751328285,"79":-0.10112584367951864,"80":0.03194730941429101,"81":-0.12557921401974503,"82":-0.443227888814019,"83":-0.24223954603799633,"84":0.0961545447289291,"85":-0.2678408675102475,"86":0.1368271618900143,"87":-0.0937249282351008,"88":0.16928683572825956,"89":-0.3921732944084416,"90":-0.37492250078676714,"91":-0.02407633441524982,"92":-0.1470902625718355,"93":-0.12437239616722007,"94":0.36390520546119104,"95":0.047080231214612606,"96":0.21460738939159366,"97":-0.20163328173910935,"98":-0.13444735552272735,"99":0.05894132573969127,"100":-0.1560944776995799,"101":-0.10164779091392634,"102":-0.024969284762412718,"103":-0.1327956303919289,"104":0.15291642525137922,"105":-0.13426864106490569,"106":0.05199059561966743,"107":-0.043180737369213386,"108":-0.14641145959139823,"109":-0.2231622245171769,"110":0.05912756667897277,"111":0.01272368994399419,"112":0.13112080562892306,"113":-0.22180168041943216,"114":-0.07316815425892782,"115":-0.17237839799443297,"116":-0.06672181453608883,"117":-0.056866761044225285,"118":-0.033219161692502344,"119":-0.20339616432136773,"120":-0.2441823086688301,"121":-0.0003025744796255911,"122":0.29540978511256427,"123":-0.1610337184243456,"124":-0.0035322196950361745,"125":-0.061892309402106896,"126":0.021927872775479033,"127":-0.034363983875767494,"128":-0.08639270271425804,"129":-0.10225836395644838,"130":0.06091659930711923,"131":-0.37596473512092754,"132":-0.0978571403527033,"133":-0.13272139029276114,"134":0.13494880624552988,"135":-0.22230914930083992,"136":0.022134054652041248,"137":-0.14909951744173797,"138":-0.163309395209463,"139":-0.10170747796477647,"140":-0.1583539687308273,"141":-0.2233697758758241,"142":0.12720880422008982,"143":-0.2509576502077537,"144":-0.31240644834364306,"145":-0.19552361925385306,"146":-0.006104541474109264,"147":-0.2177280549858219,"148":-0.10866327378419559,"149":0.1731778269793228,"150":0.01022547571079325,"151":-0.20747570784187103,"152":-0.3610222540211165,"153":-0.03543178213459252,"154":-0.10935489443280963,"155":-0.3972035083476904,"156":-0.14750298696534472,"157":-0.038357494200981036,"158":-0.22326865889844466,"159":-0.24740731681812606,"160":-0.10968612022383314,"161":0.08400625580501404,"162":0.12967150513192388,"163":-0.05434834350662157,"164":0.0870019498535453,"165":0.2545167337971894,"166":-0.07671936642769221,"167":0.09676189899796372,"168":-0.16615578129663486,"169":0.2957847825669026,"170":0.2587184074871543,"171":-0.07851705870951742,"172":0.2112597954066772,"173":0.002122401000525692,"174":-0.07967700240955747,"175":0.05896435275348217,"176":-0.08364907356497425,"177":0.10696273401428205,"178":0.043653347292710525,"179":-0.0578857510000791,"180":0.07687906490784767,"181":0.12380176500539118,"182":0.05710886031662264,"183":-0.24345431656097738,"184":-0.14198181156602746,"185":-0.07094646872033333,"186":-0.0785048377566816,"187":0.06342307961629437,"188":0.14741654306590093,"189":0.19553772979646258,"190":-0.04315997201102832,"191":-0.057988904607293924,"192":-0.16537607319608372,"193":0.018193657313244342,"194":-0.025369203843254827,"195":0.0600062534585234,"196":-0.05986530582825453,"197":0.26424956413675443,"198":-0.4226412880368636,"199":-0.054794878034221096}},{"sx":5,"sy":5,"depth":8,"w":{"0":0.05478985124429331,"1":-0.09220055723691248,"2":-0.09965964683101926,"3":0.0782594661568582,"4":0.09752346742594972,"5":-0.102683695528247,"6":-0.15200819815613062,"7":-0.025924519478786906,"8":0.07229912040158945,"9":-0.06087540626762353,"10":-0.027873821389073985,"11":-0.02911457325941301,"12":0.06967468915695985,"13":-0.2398281865659271,"14":0.09933583220993246,"15":0.02357074606416969,"16":0.12273589504706589,"17":-0.17308890767183932,"18":-0.03314042582049539,"19":0.12861000938270226,"20":-0.020333156979048334,"21":-0.13698084679210581,"22":0.003943779584546006,"23":-0.1359145583027881,"24":-0.028089921733437325,"25":-0.11679852402072138,"26":0.003051063842935876,"27":0.13164104928335477,"28":0.08424027418010782,"29":-0.08612722571228829,"30":0.13918106791666587,"31":-0.1589355237926291,"32":-0.15282283154387583,"33":-0.2706391532315605,"34":-0.029543647072528652,"35":-0.2165273457558072,"36":-0.1377055599272588,"37":0.06835922494112853,"38":0.03007216335084253,"39":-0.0506374232625483,"40":-0.1566213452120306,"41":0.04727789507629312,"42":-0.12322295656318646,"43":-0.10250556295147563,"44":0.05968476615672214,"45":-0.17154317322762266,"46":-0.10174610271960473,"47":-0.044561267821111465,"48":0.06710214521293531,"49":-0.015872084929822027,"50":-0.2033855202576712,"51":-0.2620860295753405,"52":-0.09968907987040501,"53":-0.04156323569909213,"54":0.18303950185222626,"55":-0.1037431974261244,"56":0.03671561884509226,"57":-0.11250192527521194,"58":-0.11468969045791204,"59":-0.09683507202695465,"60":-0.23316076300400645,"61":-0.03346789824689787,"62":0.10974994582129333,"63":-0.10058782669711454,"64":-0.21792734582423715,"65":-0.09745806747825499,"66":-0.073886148709965,"67":-0.142451365226359,"68":-0.1795847787933671,"69":0.2813668835467368,"70":-0.03930347200501268,"71":-0.012617966779382142,"72":-0.07257693649414869,"73":0.04578316586054666,"74":-0.011983938847639836,"75":0.24133601538020572,"76":-0.38061328702023256,"77":0.3573598444402923,"78":-0.09045831710417289,"79":0.17804568182216324,"80":-0.32593790845338005,"81":0.10825287874205333,"82":0.27023940837393956,"83":-0.21021030265290525,"84":0.22921087167135093,"85":-0.24323740355409523,"86":-0.10483109640123645,"87":-0.14273475374700567,"88":-0.25335091424019046,"89":-0.16534806759565937,"90":-0.1690746726729939,"91":-0.1586630792810932,"92":-0.23861721496308685,"93":-0.1350922611148165,"94":-0.07494415053753,"95":-0.14476124128198847,"96":-0.1311464326835615,"97":-0.1190962853066081,"98":-0.0042525523159859194,"99":0.10880264466815263,"100":-0.22128337729866038,"101":-0.11295010143838033,"102":-0.13463961881648057,"103":-0.27375484848099985,"104":0.05560964645672454,"105":-0.14676878691552145,"106":0.20635160707410216,"107":0.27119208078184587,"108":-0.23127533560678776,"109":0.09772385903807292,"110":-0.18582633454391595,"111":-0.14996783310628925,"112":0.2622124746821695,"113":-0.0028820196949183685,"114":0.07338666534432911,"115":0.2001045406171857,"116":-0.22646380532330476,"117":0.03949603440040339,"118":0.023689174641020452,"119":0.022223394352374547,"120":-0.34542715062085005,"121":0.2674548776804956,"122":-0.0529122852954151,"123":-0.2733196619317968,"124":0.1161611915776636,"125":-0.20970603431898097,"126":0.08362657073714014,"127":-0.09485398256285268,"128":-0.10836917360821126,"129":0.08371484117200577,"130":0.016878670238001582,"131":-0.0015957729883529143,"132":0.010863979100090813,"133":-0.3070992815984903,"134":0.11671235799999626,"135":-0.11633766169571864,"136":0.014018930858508982,"137":-0.21125820380125623,"138":-0.04738724881731705,"139":-0.05663128510247791,"140":-0.18926658541887895,"141":-0.18964668142358657,"142":-0.009163376508736004,"143":-0.1526251987146217,"144":0.20738613803402217,"145":-0.25068616849980085,"146":-0.012507961073937273,"147":0.15609515457520642,"148":-0.20335886303009884,"149":-0.21928765364145272,"150":0.19405121877799622,"151":-0.11282423910850581,"152":0.24896952202259465,"153":-0.324205988691004,"154":0.06722644341605083,"155":0.07725678377865065,"156":-0.25851727041982864,"157":-0.233266851274316,"158":0.5841082162749733,"159":-0.1545276155215612,"160":-0.3881407342444242,"161":0.2890935797721851,"162":-0.0735947847301921,"163":-0.15758938266904401,"164":0.1578853277659903,"165":-0.11045145049384214,"166":0.17470014245338147,"167":-0.018481009475928054,"168":-0.25994811510391125,"169":0.10862185577677834,"170":0.14651261452782682,"171":0.004144987923781664,"172":0.17270204626939298,"173":-0.14525680508813463,"174":0.1441877530161067,"175":-0.04684474077178668,"176":-0.20071036119935867,"177":0.034978658538844916,"178":0.1612404195693139,"179":-0.20614976635901341,"180":-0.0319414703935014,"181":0.1291441747016491,"182":0.14108466069668338,"183":-0.036391905854405465,"184":-0.15173586212440143,"185":0.0570448914922542,"186":0.06928553681310862,"187":-0.10714076383225948,"188":-0.2971051709351689,"189":0.17958639305590762,"190":0.27779316570613605,"191":-0.06198290149858983,"192":-0.1725441443701894,"193":-0.06927132385807416,"194":0.11159770885330714,"195":-0.1529484254364633,"196":-0.2339449257355533,"197":0.39837976868298414,"198":0.24707347717184025,"199":-0.339843123036972}},{"sx":5,"sy":5,"depth":8,"w":{"0":-0.03278688144799079,"1":-0.137346135674735,"2":-0.03672450033467466,"3":-0.11653773137054386,"4":-0.14580688790363425,"5":-0.010312051313112424,"6":0.07999251361882703,"7":0.13087312411861163,"8":0.0543651772864174,"9":0.17822210379109224,"10":0.049001135508037225,"11":0.0035769067620498446,"12":0.0008740376346774523,"13":0.09095013244861141,"14":0.03042373183541786,"15":0.13714930387207122,"16":0.11858427347250601,"17":-0.026249182334321802,"18":0.08020341289416823,"19":-0.06480734064523955,"20":0.08762410976130726,"21":-0.20873969338666554,"22":-0.06928228555225646,"23":-0.04390527478645563,"24":-0.04780040797605604,"25":-0.22024019990903654,"26":-0.1747567870087483,"27":-0.06867450126517785,"28":0.08314145114292389,"29":-0.2222270077242434,"30":0.03202824831694354,"31":-0.21979575162920026,"32":-0.040756453236549486,"33":-0.33659141750140953,"34":-0.035523328381485565,"35":-0.013709186405690719,"36":0.05465116552080362,"37":0.25592135414903733,"38":-0.1310317369157419,"39":0.16663382186236167,"40":0.09254487554137444,"41":-0.2156933396620392,"42":-0.18097390847633896,"43":-0.14176810652358487,"44":-0.1899524565746445,"45":0.24124809926111354,"46":0.000865893593214737,"47":0.08968235865882994,"48":0.18340161577747321,"49":0.050932267710929735,"50":-0.04987392361840278,"51":0.0966518539333106,"52":0.22263511940964748,"53":0.013259044103679847,"54":-0.0897723963636676,"55":0.2568832981315638,"56":0.11395472015309475,"57":0.21428332823911594,"58":-0.14756020821709734,"59":-0.03735106031036613,"60":0.12166207316710193,"61":-0.2195884613267177,"62":-0.03835617189086392,"63":-0.17763925915621842,"64":-0.2092545928050596,"65":-0.2533635709315618,"66":-0.3695305068423108,"67":-0.1824111400009206,"68":-0.09927290926181077,"69":-0.19406238244622306,"70":-0.014537541719451675,"71":-0.168755168928341,"72":0.10817221892130574,"73":-0.3348324005331653,"74":-0.05596092864361723,"75":-0.15220301149492663,"76":-0.1396044015740443,"77":0.21143675484992813,"78":0.028786560989869613,"79":0.258828607748837,"80":0.17335695471570733,"81":-0.1973179003501203,"82":0.021893397583128946,"83":0.12994550886208864,"84":0.0021665404497192894,"85":0.19648396935263435,"86":-0.212078059323575,"87":0.10376987328533263,"88":0.14545172217446575,"89":-0.11854619643100182,"90":-0.14807401079557017,"91":0.05532520097070049,"92":0.17722305133163388,"93":-0.022651275572238692,"94":-0.18904582755686822,"95":0.04879520076995695,"96":-0.15827454188895893,"97":-0.06156869257042411,"98":-0.2740387042893206,"99":-0.26900194148012074,"100":0.09972907291518537,"101":-0.07704977875632787,"102":-0.27497807024228443,"103":-0.3177836866697051,"104":-0.35410043803507046,"105":-0.2981528940723052,"106":-0.24713880889897163,"107":-0.35280126123545147,"108":-0.21418342913493657,"109":-0.25957494170994627,"110":-0.0769669958925758,"111":-0.19967139761719674,"112":0.34144388733139225,"113":-0.38858080413014917,"114":0.01369765740876387,"115":0.11043118866360757,"116":0.009484863024690392,"117":-0.16036967432084243,"118":0.29052085384631954,"119":0.2194498763333679,"120":-0.016223125654355155,"121":-0.22811530050113096,"122":-0.19069284939531755,"123":0.10860732316013644,"124":0.13273732711271197,"125":-0.031880051775541186,"126":0.06772660776962831,"127":0.06574316821263393,"128":-0.25368190352429754,"129":-0.2890898263927324,"130":-0.17327925944591835,"131":-0.2106849437832061,"132":-0.051253634849316596,"133":-0.06338329563566289,"134":-0.0600116130789108,"135":-0.13503857588009247,"136":-0.12707258599599844,"137":-0.15007501241579732,"138":-0.3743745663197548,"139":-0.20983924580030908,"140":-0.08937769604508518,"141":0.23731557711849008,"142":-0.22258958400391365,"143":-0.01706449409139563,"144":-0.20509184409262382,"145":-0.05793669380905235,"146":-0.15622582877736277,"147":-0.13903278296474572,"148":-0.16318739854667613,"149":0.027328338156475108,"150":-0.04762391924490686,"151":-0.1965269717926091,"152":-0.168528415513152,"153":-0.11679193940419604,"154":0.10706207419402824,"155":-0.046595710177248145,"156":0.0972191814106318,"157":0.0680231355201755,"158":0.4281028987686391,"159":-0.14504032041759232,"160":-0.23104135364036635,"161":-0.10533479828555437,"162":-0.12971752818332838,"163":-0.13568854257955706,"164":-0.03089704115307208,"165":0.19275104275585972,"166":-0.007260282511580384,"167":0.052816024569962025,"168":-0.27047909651554664,"169":-0.12290509164188078,"170":-0.04975735860807114,"171":-0.15363550871686427,"172":-0.07892035434598553,"173":0.015011291520154211,"174":0.10455375785236037,"175":-0.07294796479033872,"176":-0.11054027501019664,"177":-0.04680969650771312,"178":0.022485953979301043,"179":0.0659988634480993,"180":-0.032592269605916636,"181":0.10702351361240456,"182":-0.11923023139512445,"183":0.14877384586511705,"184":-0.06269539331884094,"185":0.11905088913268673,"186":-0.17220671783914734,"187":0.13951716438703665,"188":0.17131328135401455,"189":0.13902473499016554,"190":-0.21468307209946638,"191":-0.07575473653046641,"192":-0.18434508160574395,"193":0.22575305273102247,"194":0.1800823151666008,"195":0.04740419487822302,"196":0.17082481973601857,"197":0.153224614069343,"198":-0.28201491031880316,"199":-0.07455991285220218}},{"sx":5,"sy":5,"depth":8,"w":{"0":0.022247953146907164,"1":-0.012219414616537916,"2":0.18969781026171723,"3":0.15765729511501542,"4":0.09253443731457553,"5":-0.3693388136581945,"6":0.034437979160350025,"7":-0.08041930995500417,"8":-0.3654741379740261,"9":0.0907334072893135,"10":0.22118223223055627,"11":-0.021014021284466347,"12":0.013937606182992087,"13":-0.06358389333521004,"14":-0.13581850665951137,"15":0.1089109294486555,"16":-0.039724274451774705,"17":0.11994591227390165,"18":0.04541513144251376,"19":0.03772527475762639,"20":-0.006167039793494129,"21":-0.05058088169792541,"22":-0.14626329929223125,"23":-0.025687614450315307,"24":0.019970705300471406,"25":-0.09478368480036911,"26":0.09291551500427131,"27":-0.088131262861617,"28":0.11580982941615307,"29":-0.06981768916917595,"30":0.0022866259011971096,"31":-0.06315812723855317,"32":-0.07498140235317959,"33":-0.24868061730926658,"34":-0.054060050652068106,"35":0.006196388972046976,"36":-0.16016084528230126,"37":-0.1727722618833689,"38":0.0363493164403997,"39":-0.13861769007933397,"40":-0.031155556283324594,"41":-0.21595145706686228,"42":-0.20843843402716464,"43":-0.11988575320296854,"44":-0.17481149667364718,"45":-0.028215751541073635,"46":-0.0006221768600572918,"47":0.07291365776831596,"48":0.05912439075342383,"49":0.040530050813868734,"50":-0.05663594636417789,"51":-0.00396055316213137,"52":-0.1788595329698392,"53":0.016851913270563162,"54":-0.11562730316992684,"55":0.16016907888397808,"56":0.33788769585840966,"57":0.08218859133266739,"58":0.01143174638145184,"59":0.1785164733609859,"60":0.2203339391865825,"61":-0.18599329486444754,"62":-0.2926029405712296,"63":0.06836877153004293,"64":-0.0009047873258811226,"65":-0.11382528389805417,"66":0.019525522565136323,"67":-0.12215634079449009,"68":-0.045178774440987425,"69":-0.25387455463589975,"70":-0.020176831895985434,"71":-0.14143245191305728,"72":-0.19010983581310367,"73":-0.3235151938801396,"74":-0.19145715352358045,"75":-0.26135937785431934,"76":-0.07031787884782822,"77":-0.21228406986516624,"78":0.03799666396433818,"79":-0.24406627128204494,"80":0.30424018200120095,"81":0.09282022555363931,"82":0.15070543584779486,"83":0.052917985215844704,"84":-0.0549843490266096,"85":0.4437587848131009,"86":-0.2861293787932042,"87":-0.011550202173272647,"88":0.22897762345292705,"89":0.004354798958670146,"90":0.11849389713640818,"91":0.13803624363775746,"92":0.24237656621562678,"93":0.18215153333905815,"94":-0.2990034234363542,"95":0.09527930378556572,"96":0.059094274129321084,"97":0.019411591773854587,"98":0.0050298889227222586,"99":0.14487599557743405,"100":0.19550253019678082,"101":-0.07778663663072848,"102":-0.23260081848748132,"103":0.14022760265920514,"104":-0.3717233779884876,"105":0.01868350967603805,"106":-0.049735219735629,"107":-0.0937016403507611,"108":0.1325136096787805,"109":-0.049953269740121035,"110":-0.05864971822989307,"111":-0.2361035069757254,"112":-0.30409852369088325,"113":-0.19497526966305714,"114":-0.14216580347490224,"115":-0.18568053949252045,"116":-0.1667352144050812,"117":-0.0025935944363036753,"118":-0.20245425265594802,"119":-0.3594663423865018,"120":0.26500829073205184,"121":0.06112450224110219,"122":0.04706040935461379,"123":0.3063659090131331,"124":0.17318913245807566,"125":0.26958329185686486,"126":-0.31010221929894666,"127":-0.16213550072418145,"128":-0.02217211861348346,"129":-0.1786601691205411,"130":0.015157233859479712,"131":0.20524218177862164,"132":0.18660576992167255,"133":0.0758751658488182,"134":-0.15207160693194383,"135":-0.16506631853417109,"136":-0.047940376587569916,"137":-0.039861032170135875,"138":-0.01766352027185366,"139":0.12334839260187404,"140":0.07551166592923486,"141":0.03023219693843555,"142":-0.26702703769985886,"143":-0.2355566995817906,"144":-0.1085490510925513,"145":-0.14966406339849253,"146":-0.009989858578633439,"147":-0.08420190778230756,"148":-0.22328829084911914,"149":-0.017761006787306747,"150":-0.2163287369032931,"151":-0.2461918312610845,"152":-0.20034606846405972,"153":-0.24225707933395665,"154":-0.0229140548488029,"155":-0.04347094426137764,"156":-0.035827272970566475,"157":-0.09152380365475123,"158":-0.06666407746576324,"159":-0.3815180256587331,"160":-0.2845011706487112,"161":-0.035730649104668256,"162":-0.1315369179394497,"163":0.2017364352764396,"164":0.15805777858035833,"165":-0.0744348224648209,"166":0.07497484594590038,"167":0.01623049964612273,"168":-0.2515365676357254,"169":-0.08071086844040568,"170":-0.19374114541707899,"171":-0.24030200678617303,"172":-0.1393082733413385,"173":0.03346832667326532,"174":0.21207602328079658,"175":-0.233413480756409,"176":-0.13033900751702607,"177":-0.09928946357448293,"178":-0.19160367058557748,"179":-0.34113452947344636,"180":-0.15144770539198554,"181":0.033738791870902916,"182":0.21626360119163873,"183":-0.21374299122587617,"184":-0.21359744289136068,"185":-0.04201377965251565,"186":-0.08121875483547833,"187":-0.2385730143782402,"188":-0.14486810761271693,"189":0.027450193467664325,"190":0.26113859523548283,"191":-0.15357400890695586,"192":-0.42052771163823416,"193":-0.00822950343306219,"194":-0.11039519063684977,"195":-0.1955921897773601,"196":-0.055453672326274205,"197":0.16353122357503022,"198":-0.09988926128935198,"199":-0.16399742867150524}},{"sx":5,"sy":5,"depth":8,"w":{"0":0.17603178160640295,"1":-0.24604081791122398,"2":-0.03376206096747416,"3":0.13580346382958305,"4":-0.1383411647904017,"5":0.13621564754510898,"6":0.11991574890712056,"7":-0.04395334950786871,"8":-0.038397961568640955,"9":-0.1427097770632978,"10":0.14695208461055353,"11":0.1508026013576864,"12":0.18359205584196556,"13":0.20942877542890634,"14":0.19684183074648184,"15":-0.02336973147241927,"16":0.03138611382373051,"17":-0.16156306180009133,"18":0.06752664103323788,"19":0.012352857565578648,"20":0.09545697957072218,"21":0.0014409570417299867,"22":0.24222972382220082,"23":-0.11754793758694414,"24":0.1782719227268405,"25":-0.23071648549624046,"26":-0.0696590868819594,"27":-0.10509647377319475,"28":-0.24674841615792317,"29":0.0408235360511605,"30":-0.13826394154235602,"31":0.20943115229787246,"32":0.032165014669032266,"33":-0.07013641917099002,"34":-0.15213461241738996,"35":0.04786393832194505,"36":-0.07356800613802503,"37":0.11831109724256665,"38":-0.30613858806781025,"39":0.015732136681608458,"40":0.05275342837148339,"41":-0.2644046595392836,"42":-0.24914515923535008,"43":0.05231661801725512,"44":-0.04704091850736469,"45":-0.17480475626472392,"46":0.2137556809522243,"47":-0.045049062181736994,"48":-0.08325698962499782,"49":-0.19467526956154949,"50":-0.07842089107403975,"51":-0.03236188485556555,"52":-0.07733853628623395,"53":-0.1667477250967448,"54":0.1933508491837857,"55":-0.18565196428022737,"56":-0.015258703574889074,"57":-0.17446725719573683,"58":-0.11789930186246143,"59":0.012502652600902109,"60":0.07091089820146376,"61":-0.032344440125880385,"62":0.017192847012606018,"63":-0.015286666195153245,"64":0.04140259301751426,"65":-0.18661631328156617,"66":0.07559286735454075,"67":0.13054491927907508,"68":-0.04767543293389185,"69":0.18082832578877836,"70":0.0038813763320948006,"71":0.1079111335168779,"72":0.09738329799521162,"73":-0.0162843819971084,"74":0.02195967710022883,"75":0.154543671649277,"76":-0.03897111797831185,"77":0.3054923259349155,"78":0.000015249217088074785,"79":0.04250548944491806,"80":-0.19841027322883845,"81":-0.10626581126264828,"82":-0.0276260416156323,"83":-0.20611610597545932,"84":-0.23172970405100618,"85":0.10118409862681123,"86":0.19977890411829632,"87":-0.22779313916735694,"88":-0.30352682323934826,"89":-0.05409520746823032,"90":-0.1799992092091229,"91":-0.3771415131437068,"92":-0.16465177188081945,"93":-0.09188912087442253,"94":0.08460126884732996,"95":-0.29434967145067453,"96":-0.13669262395454299,"97":-0.15693011215941985,"98":-0.34890115925850224,"99":-0.2274167848583147,"100":-0.07833937774572232,"101":-0.32891298395868146,"102":0.24847924204796037,"103":-0.1622690151277813,"104":0.20699425277038538,"105":-0.32335908341078096,"106":-0.24521562789954773,"107":0.1799122712197926,"108":-0.09780611478151424,"109":-0.19204706415036688,"110":0.2270828261960599,"111":0.1547223278395674,"112":0.13617299283468767,"113":-0.15823153184385644,"114":0.043620826935642974,"115":0.024927589722468228,"116":0.06306701482188588,"117":-0.13690875295296337,"118":0.014132147520917501,"119":0.0699768062120253,"120":-0.34097435371540447,"121":0.1411824949429756,"122":0.2084039440898168,"123":0.2827348266065874,"124":-0.03843478583517577,"125":0.27040039946349165,"126":-0.32380106225626415,"127":0.09152342223647436,"128":-0.4249841598207594,"129":0.08120032764313938,"130":0.1785884683128199,"131":-0.06361983286274878,"132":0.023399808294447638,"133":-0.024867955960469697,"134":0.02695063880642145,"135":-0.0595431367221952,"136":-0.21029210094104475,"137":0.07212133884052094,"138":0.1825278904961393,"139":-0.13581960504327573,"140":-0.05762431474900969,"141":-0.20047631350603715,"142":0.28837282446279455,"143":-0.2067273716216558,"144":-0.24591993660805625,"145":-0.11487501716717213,"146":0.06440059412494455,"147":-0.25509385361846726,"148":-0.1771956019400915,"149":-0.09088929216248719,"150":0.36746221773879406,"151":-0.16906383200902225,"152":-0.2442185794312887,"153":-0.1755550941525865,"154":-0.019913027794624637,"155":-0.04267615175427624,"156":-0.3121288474190647,"157":-0.07909034627406045,"158":-0.010242303348434664,"159":-0.13798415780307344,"160":-0.1508260074254652,"161":0.1696827643534464,"162":0.0871107988744629,"163":0.07942939881286684,"164":0.06500316299273075,"165":0.05253175673043385,"166":-0.08061002843480014,"167":0.14925286721007558,"168":-0.16519052086260733,"169":0.2697177521322276,"170":0.19077868256115935,"171":0.1744491914484508,"172":-0.01850402345930753,"173":0.12931290866702905,"174":-0.15031286853696785,"175":0.3016609672227352,"176":-0.35610563114820354,"177":0.3889924667396765,"178":0.1361927247618996,"179":0.13800195537341664,"180":0.12201818851391256,"181":0.15057426408744168,"182":-0.3733903313008808,"183":0.20449615131587992,"184":-0.12036261275023726,"185":0.30855890772828864,"186":0.03162086653189664,"187":0.01108882402771762,"188":0.07632802509919849,"189":0.17982694420528983,"190":-0.13473220440071185,"191":0.04191003321056595,"192":-0.1276492937270173,"193":0.07995006251042329,"194":0.15678776168900646,"195":-0.09018499156325,"196":0.06997220920120893,"197":-0.007300124126560493,"198":-0.13445665049904212,"199":-0.027674879594499123}},{"sx":5,"sy":5,"depth":8,"w":{"0":-0.08840951868872894,"1":-0.16669891593757907,"2":-0.07502277346415318,"3":-0.1988833960899258,"4":-0.09820425400463946,"5":-0.030688539200765287,"6":0.010923121076521675,"7":-0.12114031587303523,"8":-0.2647759888570267,"9":-0.10680055614608028,"10":-0.07756455325918993,"11":-0.3297716614118673,"12":0.00946236267243681,"13":-0.1826915728896717,"14":-0.072135336026501,"15":-0.09089176993534444,"16":0.05379867594755556,"17":-0.25018962838642655,"18":-0.1751514087060106,"19":-0.2648157252107355,"20":-0.06344795871019099,"21":-0.1306636566340138,"22":0.1580045637067637,"23":0.11375501859697583,"24":-0.013438456582499612,"25":0.08869938347152304,"26":-0.2582552685262259,"27":0.0641064626992047,"28":-0.16269308658802362,"29":-0.046798256847284336,"30":-0.15504580698408035,"31":0.22997488463311838,"32":-0.06971817770681056,"33":0.2306927199636421,"34":0.3027827184865178,"35":0.3000778508503765,"36":0.1468607388367285,"37":-0.1991941203378829,"38":-0.19845001088443004,"39":0.11691659409248775,"40":-0.1743228463879329,"41":-0.03829652999841525,"42":-0.20096810339439075,"43":-0.13979100840597453,"44":-0.2855538803194996,"45":-0.12493715538805791,"46":-0.17828311619230466,"47":-0.31606584643361174,"48":-0.22121061961064534,"49":-0.11410879711379279,"50":-0.18607854000125718,"51":-0.21967539663906205,"52":0.009422377514448788,"53":-0.005193519328349285,"54":-0.1995992693136957,"55":-0.1145036801826448,"56":0.021288736851073103,"57":-0.16722424720199083,"58":0.08246228723134018,"59":-0.3622863498961423,"60":-0.1568317194971433,"61":0.04326237695037814,"62":0.03989397809248532,"63":0.1431606698059676,"64":-0.049881692008632,"65":-0.19632128870335164,"66":-0.17387914938248683,"67":-0.009483900641400861,"68":-0.2816504355288821,"69":-0.09732645813847546,"70":-0.18229046370412835,"71":0.2700516104912591,"72":-0.16664798143668985,"73":0.09976970849424527,"74":-0.2147302186526307,"75":0.011429943916411014,"76":0.09502229068380204,"77":-0.3767888596763632,"78":-0.2167352751345555,"79":0.10606147712713462,"80":0.0427555896713297,"81":-0.07829147976480479,"82":0.1378896820428116,"83":0.05386129252138247,"84":-0.06417265534372596,"85":0.12213513812531056,"86":-0.10578912336518355,"87":-0.05484424642584184,"88":0.10751154002353587,"89":0.016111229471061122,"90":0.04816223553709688,"91":0.09839101985502596,"92":-0.06709966541297999,"93":-0.0007400121203799131,"94":-0.16455922864686875,"95":-0.13525147302277235,"96":-0.04040713659659678,"97":0.0371661042595552,"98":0.12995158193429834,"99":-0.1299206162143174,"100":-0.034722546441268,"101":0.05560186474020559,"102":-0.09400356832513514,"103":-0.09568583415225726,"104":0.17871807952281502,"105":-0.35304222665231705,"106":-0.19582230502323206,"107":-0.07904717557074116,"108":-0.3067449942317033,"109":-0.026421376936797938,"110":-0.13973631073123186,"111":0.2628902422562064,"112":0.08569625768456553,"113":0.02199878690479787,"114":-0.047220828024260836,"115":0.14240389285519967,"116":-0.09682248262869246,"117":-0.49959317021907595,"118":-0.41075257504503304,"119":0.02858938483750862,"120":-0.010866724616221452,"121":-0.010235248980989231,"122":0.17957289853985275,"123":0.1604591728175977,"124":0.060680886226244464,"125":-0.004723271105578054,"126":-0.16135694976299117,"127":0.026014874368499523,"128":0.041292239681938035,"129":-0.017000092748390986,"130":0.17122256323989288,"131":0.006331194126765783,"132":-0.05950977093006135,"133":0.22825712538689688,"134":-0.07913036021684125,"135":-0.1011294448132582,"136":-0.1271169650169185,"137":-0.13880371696334529,"138":0.2044317020803858,"139":0.03962098821977239,"140":-0.006745147590203743,"141":0.10539044507067548,"142":-0.17319347566683332,"143":-0.10125922818312687,"144":-0.14946885057774179,"145":-0.22452134246236,"146":-0.0015993832794599838,"147":-0.05536280858213001,"148":-0.13315638321668818,"149":-0.11467645460362123,"150":-0.14589763846199594,"151":0.17236106319011488,"152":0.021271328312635326,"153":-0.0138425039163132,"154":-0.21133321949780637,"155":0.24628192321571285,"156":-0.03638925215681586,"157":-0.3318977839688239,"158":-0.3174959181787729,"159":0.1103488608857556,"160":-0.08542192205927149,"161":0.06330607549341175,"162":-0.03178475850993623,"163":0.0009253063804280465,"164":0.183977433587058,"165":-0.007310500701661624,"166":-0.07151689537657506,"167":-0.03482977460081714,"168":-0.1117343412861881,"169":-0.18017869079741067,"170":0.006487140652407871,"171":0.032837497927046155,"172":-0.18042617351791634,"173":0.11016716248307867,"174":-0.05771294835746586,"175":-0.02270807824591079,"176":-0.11215146204064307,"177":0.07079065488140988,"178":-0.09531086686695292,"179":-0.11861134497864247,"180":-0.10183181022153151,"181":0.08588540486674096,"182":-0.17391470825857655,"183":0.07398834691030363,"184":0.13656726858965754,"185":0.005247355870309554,"186":-0.004909702967274199,"187":-0.08555160037305075,"188":-0.3238307791714758,"189":0.12721372448224258,"190":0.05079467535072526,"191":0.2815774212124732,"192":0.20754399483172548,"193":0.1719130767137038,"194":-0.16819550884623652,"195":0.29604927533381614,"196":-0.03874581159564465,"197":-0.19471967265135193,"198":0.15369990948382672,"199":-0.0019879836665262452}},{"sx":5,"sy":5,"depth":8,"w":{"0":-0.22993015815372217,"1":0.06327556472420015,"2":0.26956951510345006,"3":0.039040312381193994,"4":0.14022838445200406,"5":0.03219160079521146,"6":-0.12178036109987857,"7":0.05320146397475944,"8":-0.27014347768062286,"9":0.040317576216250366,"10":0.15055845012440616,"11":-0.27435532492650266,"12":0.039562150692155476,"13":-0.2404445021534815,"14":-0.005965251977107154,"15":-0.14397278270376307,"16":-0.0001030922221302988,"17":-0.023319884472272637,"18":-0.09249310693140055,"19":-0.1850878454752923,"20":-0.1405175627218227,"21":-0.09250168837120756,"22":0.21395366728388734,"23":0.08169031743427838,"24":0.27957996820794107,"25":-0.07194787515944771,"26":-0.2204553197167205,"27":-0.007387752237563419,"28":-0.15439156504287657,"29":-0.22479930005738646,"30":0.23629866190947776,"31":-0.10661922831671236,"32":-0.1904886115769503,"33":0.013296459593404005,"34":-0.14259603352232458,"35":-0.19139071748480516,"36":-0.09343242588813142,"37":-0.3735718859084321,"38":0.13393266317950725,"39":-0.04564668314472493,"40":0.0002960340828817707,"41":0.1614650036804326,"42":0.12768715905481498,"43":0.2255430303740495,"44":0.11064743741580059,"45":-0.3018136033490316,"46":-0.06020663720240618,"47":-0.11528128662255807,"48":-0.34101748727616843,"49":0.0875961974904704,"50":0.30720005158392016,"51":-0.07960110269869955,"52":0.10865883214208123,"53":-0.3192724193862542,"54":-0.10843792144952927,"55":-0.05917357216660262,"56":-0.06776780807688441,"57":0.14230286401342876,"58":0.3206084308004829,"59":-0.02074307328286335,"60":0.02874634216854855,"61":-0.171487610120736,"62":0.07717855390510894,"63":-0.11188598707671897,"64":-0.04463407381733568,"65":-0.20907658880331775,"66":0.021767080427160235,"67":-0.10261955717514676,"68":-0.2166103305669103,"69":0.149657954430053,"70":0.08596545827682707,"71":0.05929943159274211,"72":0.03901396581552881,"73":-0.10119227106980926,"74":-0.2798932433402844,"75":-0.04490872475633193,"76":-0.19272733440720616,"77":0.10077245417139111,"78":0.005890000378285905,"79":0.032612261345118645,"80":0.0936220150001414,"81":-0.3669335024363165,"82":-0.1453089317359501,"83":-0.2815071456296451,"84":-0.13241765417192275,"85":0.036106718771318574,"86":0.10871061244102738,"87":0.016014388665233466,"88":-0.17784802413937187,"89":-0.028863135278903666,"90":-0.300609622770112,"91":-0.07122953867580281,"92":-0.27242731974511925,"93":0.03204547709527108,"94":-0.009573016971973445,"95":-0.011089112544220675,"96":-0.03577840664324323,"97":0.13510385533804695,"98":-0.04670478458435455,"99":0.10979349314695301,"100":0.05634182565180227,"101":0.0674945532234162,"102":-0.24267432868173866,"103":0.07603976196218319,"104":0.17732232183793362,"105":-0.014481600458591268,"106":0.15783044952650263,"107":0.283709648357057,"108":-0.09304380862212282,"109":0.35083461226481316,"110":-0.28589243985392027,"111":0.013865471246066371,"112":0.24733788673587717,"113":0.14047075686099023,"114":0.1752172039291176,"115":0.2548919317862386,"116":-0.08438565520617501,"117":-0.010265923753674258,"118":-0.05806386173797424,"119":-0.06412500367577119,"120":-0.06962603934460435,"121":-0.04251404752930172,"122":0.18215637909570354,"123":-0.06908736841074427,"124":-0.23598071200824264,"125":0.01455074060676329,"126":-0.2593511498531132,"127":0.06660483880447005,"128":0.24315327885134033,"129":-0.16924315871378445,"130":-0.05846460416851231,"131":-0.043027668456540775,"132":-0.1358927010214553,"133":0.14364479440607933,"134":-0.30673098129084386,"135":0.05246646534025038,"136":0.20272191905241996,"137":-0.10286196827081587,"138":-0.0747466749256988,"139":0.2521288290576037,"140":-0.005212278613327963,"141":-0.05326247188117863,"142":-0.33420667828491263,"143":0.004643866580987105,"144":0.19710790055436964,"145":0.029749218911626955,"146":0.09904910897687591,"147":0.18035769012302588,"148":-0.053459922114660705,"149":-0.14998079235384276,"150":0.06045111092749483,"151":0.0220013058952463,"152":-0.14725043387461226,"153":-0.04496024751176702,"154":0.055262068374973716,"155":-0.03645138921456432,"156":-0.11488119548155508,"157":-0.16332670403572022,"158":0.08710822450444124,"159":-0.04743756879327983,"160":-0.07639022934761992,"161":-0.1390868305757088,"162":0.07834573359663159,"163":-0.03418878188678622,"164":0.12002558479974115,"165":-0.041058014740785694,"166":-0.36324544053092983,"167":-0.06771499400965679,"168":0.0827579501361649,"169":-0.032722002746807276,"170":-0.07401405498258654,"171":-0.08193964592751249,"172":0.10695988343281514,"173":-0.05723320501027612,"174":-0.40741189058622784,"175":-0.039512212577960594,"176":-0.09949794765430314,"177":-0.05380771208934603,"178":-0.32238440933301143,"179":-0.06837935450779453,"180":0.014946154783959047,"181":-0.15548357623939865,"182":-0.16427741536463866,"183":0.11704045604604418,"184":-0.05730221349493754,"185":-0.1667803819165238,"186":-0.12556041711509108,"187":0.15344800006222228,"188":-0.09800958694714243,"189":0.05814712093545345,"190":-0.12476773792313894,"191":0.028054018465283968,"192":0.07036241785205505,"193":0.11619743271872224,"194":0.22617949767216594,"195":-0.0301264839086166,"196":-0.2919104441869922,"197":0.2425849275524841,"198":0.021232117497452446,"199":-0.04298434639671035}},{"sx":5,"sy":5,"depth":8,"w":{"0":-0.0485197194940107,"1":-0.28002473546959045,"2":0.15581380035340367,"3":-0.13329307105195776,"4":-0.2890722626717162,"5":0.0040889785966975924,"6":0.13474224191789635,"7":-0.02282086007990287,"8":0.015022699259087972,"9":-0.12495583349400961,"10":-0.05587256204093145,"11":-0.05000057462689272,"12":-0.3822913330964517,"13":-0.015369930807025289,"14":-0.12756400513247423,"15":0.1293217649859885,"16":-0.03369100624119271,"17":0.05393312411539993,"18":-0.1159666430825236,"19":0.11475176180124808,"20":-0.10882207443009599,"21":0.05280494035754282,"22":-0.19901676752116745,"23":0.20027075075126194,"24":-0.07539494936881491,"25":0.07054104090028389,"26":-0.07261827219798554,"27":0.12775432531165573,"28":0.002344858375358745,"29":-0.03681851982971279,"30":0.036485359165393624,"31":0.029682735411368778,"32":0.059076055277685564,"33":-0.03269374605942186,"34":-0.12216809426316276,"35":-0.14134678447669763,"36":-0.019809689890512412,"37":-0.26498495414745316,"38":0.08192981027615684,"39":0.028793832602742542,"40":-0.10207379471551427,"41":-0.36631954137811096,"42":-0.19759335337670886,"43":-0.39088359151755925,"44":-0.40326152106291735,"45":-0.08905519552111325,"46":0.09224071919639247,"47":0.14959780775704087,"48":0.033165404362924734,"49":-0.05930990616004728,"50":-0.34004917432320697,"51":-0.23253246613187864,"52":-0.30934069402976,"53":0.1998649823432894,"54":0.13060754623395407,"55":0.28819589337127,"56":0.09789129709882836,"57":-0.025136655149303664,"58":-0.29836075136972523,"59":-0.16889845177256507,"60":0.1565161258225731,"61":0.0786709960877724,"62":-0.06955243038478058,"63":0.23707407900418973,"64":0.02675843776192463,"65":0.08125990494415382,"66":-0.2009570528209894,"67":-0.0310825306324937,"68":0.188598471264452,"69":-0.2060690198694628,"70":-0.006803359645517728,"71":-0.25748000682853334,"72":-0.20198031076135495,"73":-0.22793072346923396,"74":-0.41031039679526865,"75":-0.32348975004909053,"76":0.001648134910105384,"77":-0.22340564272872537,"78":0.10877820773718563,"79":-0.1383120364880234,"80":-0.0695696950849775,"81":-0.28654367929371394,"82":-0.14692541469348572,"83":-0.21330651436168235,"84":-0.3110788270600901,"85":0.027568903984142176,"86":-0.07489788764169744,"87":0.011562209737798385,"88":0.1398311085726047,"89":0.0852001008453385,"90":-0.08489486106519481,"91":0.09571259366477154,"92":-0.3331825114046681,"93":0.24077458837205679,"94":0.003518778648792806,"95":0.10446088705444492,"96":0.08326325309326264,"97":0.21624695607590824,"98":0.09431770058741351,"99":0.17621796012144467,"100":0.22473125595420926,"101":0.20449156975125035,"102":-0.04584248512525114,"103":0.19246558758881585,"104":-0.0620620379763333,"105":0.1581185830433421,"106":-0.08524104233946118,"107":-0.2049193275300258,"108":0.2209809690138101,"109":-0.3776650750211213,"110":-0.16382702555002762,"111":-0.5388844538891496,"112":-0.24172584549204978,"113":-0.1415027418242994,"114":-0.10976045530164126,"115":-0.47319168405198364,"116":-0.11980655828199235,"117":0.005863061162381957,"118":0.10632481439112346,"119":-0.09312648042363017,"120":-0.023621613356003008,"121":-0.363208007481116,"122":-0.2947372467754505,"123":-0.3600607821211475,"124":-0.5732913752556699,"125":-0.03645664259012798,"126":-0.029346221553709848,"127":0.09925120696400432,"128":0.2543549059191653,"129":0.05076577173941074,"130":-0.21589560151594256,"131":0.034022045306742375,"132":0.07844101971673655,"133":-0.06287162138629772,"134":0.13583289791609088,"135":0.15108926921520724,"136":0.274473642716957,"137":0.08621948133198501,"138":-0.020441754201582688,"139":0.08517908097622011,"140":0.1857260989062484,"141":-0.12893896336109867,"142":-0.04289705621210911,"143":-0.16597741298420732,"144":-0.39188907732914435,"145":0.13550702871928458,"146":0.038508660520414593,"147":-0.36316062926131626,"148":0.10306061036807497,"149":-0.3006251679315648,"150":-0.24740721089632908,"151":-0.32364591540712395,"152":-0.32193046401961867,"153":-0.272272784560829,"154":-0.2287492700360995,"155":-0.4242533458339571,"156":-0.23637326463367883,"157":0.10313624399180603,"158":-0.16727936076178376,"159":0.030731543176973044,"160":0.06514812703216608,"161":-0.07410083797196815,"162":-0.1858984897625476,"163":-0.2553315409228863,"164":-0.3493668638587813,"165":0.057517273256796696,"166":-0.05241308385734562,"167":0.05415881894866333,"168":0.19247914232630609,"169":-0.12064109543116082,"170":-0.42049318150032094,"171":-0.03146746886307861,"172":0.15364636056144387,"173":-0.08060615397492163,"174":0.159039593184577,"175":0.10806021948601952,"176":-0.04245257294441403,"177":0.033313380573320346,"178":-0.2324553782233507,"179":-0.12994643524720173,"180":0.11478326580172549,"181":-0.07102757854777905,"182":-0.09667624176191932,"183":-0.2796827954371983,"184":-0.4428435896686485,"185":-0.1090151309146343,"186":-0.3174367704023067,"187":-0.4439637613007827,"188":0.04427915787650435,"189":0.09526198854480288,"190":-0.11741249205730976,"191":-0.20333803258643318,"192":-0.05571800049199516,"193":-0.18607348809285723,"194":-0.1510396505950338,"195":-0.3732871754007461,"196":-0.16652631181957328,"197":-0.06353610214272772,"198":0.1549392072261339,"199":-0.010487300342753048}},{"sx":5,"sy":5,"depth":8,"w":{"0":-0.08536626808472714,"1":-0.0052288265827213085,"2":-0.08917400140324915,"3":-0.010088912059202084,"4":0.03738881301285346,"5":-0.10809248900692434,"6":-0.2280698782343582,"7":0.014963227761908716,"8":-0.3861386334864691,"9":-0.08446095263654721,"10":-0.07879169357337994,"11":-0.16587437494072285,"12":0.02749841732801556,"13":0.049005519684821634,"14":-0.36153007074014487,"15":-0.14439832410527834,"16":-0.054577723036279335,"17":-0.3479325979890945,"18":-0.19429964136043132,"19":-0.23619771593920372,"20":-0.27030569063440424,"21":0.23717226704887845,"22":-0.32027705348671043,"23":-0.06261776895062028,"24":-0.039476160141154244,"25":-0.010462640459280668,"26":-0.21279420864697962,"27":0.19299280869562224,"28":-0.2309815521576817,"29":0.1982876300003361,"30":-0.337435806284512,"31":-0.16511809636585265,"32":0.09391967130204174,"33":-0.051450267671948324,"34":0.014356670559743915,"35":0.060748904962422516,"36":-0.03262947975121461,"37":0.3212616260562103,"38":-0.15506592091573818,"39":-0.031827688102490405,"40":-0.03155406535982792,"41":-0.09850313513040497,"42":-0.06487108942801774,"43":-0.11683211626691006,"44":0.20992777993625766,"45":0.018597784152933103,"46":-0.17572633433360849,"47":-0.3282969328797564,"48":-0.22860279219334628,"49":-0.22706872827930596,"50":-0.28522599176802854,"51":-0.1506012687144193,"52":-0.04945722881620576,"53":0.04362679364119973,"54":-0.3672403446375025,"55":0.007572067253018779,"56":0.1295435554188866,"57":-0.01214935365759796,"58":-0.13229794732678063,"59":-0.06789156100399851,"60":-0.2513897193344817,"61":-0.06571576091445341,"62":-0.3532310941457408,"63":0.13007109947785742,"64":0.04466359781319199,"65":-0.0725855269894527,"66":0.07137718195621892,"67":0.16920854220001152,"68":-0.028774312893607885,"69":-0.03588440102032626,"70":-0.5105708269688145,"71":-0.05926560005354998,"72":-0.012350939189868706,"73":-0.1778598646604501,"74":0.0929376067927019,"75":0.13221055626077538,"76":0.011068362751135758,"77":-0.047836665663582086,"78":-0.1691905677337089,"79":-0.08162319690742008,"80":-0.13232457233911693,"81":-0.022432123913969555,"82":-0.22166390921696932,"83":0.12935017677019417,"84":-0.00424499735928733,"85":0.29393994821981717,"86":-0.43270722224190167,"87":-0.1636991501428206,"88":0.0385144525648037,"89":-0.11573629211154975,"90":-0.1424558475143528,"91":0.1553860373075057,"92":-0.026476994228495934,"93":0.14809342013934235,"94":-0.1737960939089051,"95":0.1603897843179553,"96":0.017114264192342455,"97":0.13378796810913263,"98":0.03148646122623399,"99":0.15427704249729468,"100":0.06104804561739608,"101":-0.1350756895805426,"102":-0.3320219854540279,"103":0.018414645883193928,"104":-0.09177521581127854,"105":-0.04768977156578118,"106":-0.1992763289652112,"107":0.15394435997141165,"108":0.08057319486186218,"109":-0.11533492309488365,"110":-0.30808230913535795,"111":0.03421256885716885,"112":-0.05895339637879102,"113":-0.12246031423301126,"114":-0.03517686673968337,"115":-0.0009735508786818789,"116":0.0924996908632366,"117":-0.2239870721739291,"118":0.07854471838868192,"119":-0.1279671736130384,"120":0.051263403274299915,"121":0.10904503836135,"122":0.10124714172017152,"123":0.17597563282735948,"124":0.16590769958806306,"125":0.03611000800891943,"126":-0.38500853774442245,"127":0.03549098847199411,"128":0.09498054869672937,"129":0.012827361229158014,"130":-0.20354458224640853,"131":0.10355117108979388,"132":-0.0463042268097429,"133":-0.10755974148684833,"134":-0.08699132422101724,"135":0.13469675455610622,"136":-0.0269407217941545,"137":-0.04936912810306132,"138":0.11027938804321688,"139":0.22503621501062707,"140":0.10798714934720866,"141":-0.41795735966379854,"142":-0.0725534369500241,"143":-0.17483583886549825,"144":-0.047453065205803245,"145":0.16332083226485053,"146":-0.00919811324470759,"147":0.2576228727778357,"148":0.022605594401035434,"149":-0.26020190379554736,"150":-0.1621521331695902,"151":0.022010730997922463,"152":-0.0342298773024733,"153":0.06411468339975232,"154":0.04983760783656784,"155":0.14881686703701205,"156":-0.07263837958731384,"157":-0.18638424944623286,"158":-0.1488929092728527,"159":-0.07837029991021142,"160":0.13635501282421653,"161":-0.09289669856259955,"162":0.31724048052095605,"163":0.31494849860465457,"164":0.039043052007111466,"165":-0.30559990934034953,"166":-0.15328797266336833,"167":-0.18914610135991142,"168":0.11141918350939331,"169":-0.08926420870063284,"170":0.259423127541425,"171":0.2432150839552169,"172":-0.0046771060684095995,"173":-0.19184134091906374,"174":0.004137150047567949,"175":0.01834802045524405,"176":0.16876700592626134,"177":0.06945170797589681,"178":0.052444542977759634,"179":0.13388078266077325,"180":0.11013255423872961,"181":-0.05163813924788247,"182":0.1635689660531984,"183":-0.06721741057941741,"184":0.2238639903840626,"185":0.013320367109030192,"186":-0.0006110959369087116,"187":0.16781991503703678,"188":-0.04180891845127459,"189":-0.05497967389487314,"190":0.34148001488286067,"191":0.04379247988500175,"192":-0.09913598016006821,"193":0.03299672877205093,"194":0.07771319666468067,"195":0.3112238718793084,"196":-0.021534140441221084,"197":-0.23391192931088453,"198":0.23964798012291824,"199":-0.06843544600481499}},{"sx":5,"sy":5,"depth":8,"w":{"0":-0.058623334333228846,"1":0.005576943605676163,"2":-0.10323012517898207,"3":0.030132584974211885,"4":0.09467673631979372,"5":0.21676560899858954,"6":0.05400481065605993,"7":-0.02488330624536488,"8":0.0017904230157890133,"9":-0.031628638578140696,"10":-0.021249948792674448,"11":0.08562572387712665,"12":-0.09179444022297183,"13":0.030980964554050996,"14":0.07367522051531315,"15":-0.004982148382396578,"16":-0.09991483298799739,"17":-0.030357610205546292,"18":0.07129723807504879,"19":-0.0879635260517046,"20":-0.09658216403919914,"21":-0.029456237205479734,"22":-0.07083575436626059,"23":0.14517751317992783,"24":0.05132744472217323,"25":0.09566195589116111,"26":0.08765555049732159,"27":0.14973244439245614,"28":0.025245616158470367,"29":-0.10121258857763868,"30":-0.0658941505423021,"31":0.08796736282965886,"32":0.22704904511846627,"33":0.02455200996095983,"34":0.12056930830842619,"35":0.13794269923950836,"36":0.08986913961614036,"37":-0.0948064589680379,"38":-0.16335969757847563,"39":0.015937817161920997,"40":0.06984163140268373,"41":0.03459572193457438,"42":0.043369848223132224,"43":-0.006459989840361307,"44":0.20573524703455873,"45":-0.05668398831083058,"46":-0.07977410133874308,"47":-0.08151034524744351,"48":0.036339663530331724,"49":-0.208209587278824,"50":-0.06982275538696733,"51":-0.12465301318987064,"52":-0.07294859075146151,"53":-0.2598814447378288,"54":0.21871830266960052,"55":-0.08191669909393527,"56":-0.11406757200155906,"57":-0.07829671997026699,"58":-0.23675677231482062,"59":-0.40112163682489815,"60":-0.2533228623313613,"61":-0.11112398260055517,"62":-0.02424781537962427,"63":0.15905889687300506,"64":0.12225895424099996,"65":-0.011825840475685247,"66":-0.07005681277022183,"67":-0.023884077781742244,"68":0.007062539689191998,"69":-0.04863458931051144,"70":-0.0070539871562759334,"71":0.053488073483749975,"72":0.12005880962001955,"73":0.01835608460300382,"74":-0.11496402086068651,"75":-0.05657142142418296,"76":0.16694116960659147,"77":-0.17363459792400962,"78":-0.16653225533032767,"79":-0.23987515308153856,"80":0.0038626586161213798,"81":-0.03754647133776195,"82":0.02484929896786902,"83":-0.015143414099520372,"84":0.08835105306936304,"85":0.12053625886444155,"86":0.14350043466986906,"87":-0.20976901339298723,"88":-0.2674862057947637,"89":-0.20960040883952863,"90":-0.255611515741065,"91":-0.4525436995713867,"92":0.1115136182878964,"93":-0.19800804422707413,"94":0.040434334884957006,"95":-0.08299150171111318,"96":-0.08176244737140408,"97":-0.23071436329662962,"98":-0.31349027222434583,"99":-0.29742850473058774,"100":-0.4012317879157265,"101":-0.11343231464261044,"102":-0.15504747867041313,"103":0.1639198535835987,"104":0.06212807553910479,"105":0.05450270561007163,"106":-0.28155977506406443,"107":0.13542725217989635,"108":0.2864455396255298,"109":-0.18851394675504998,"110":-0.26069467174065836,"111":0.0869241139333901,"112":-0.1694542598432976,"113":0.03579967035293662,"114":0.01707280922731902,"115":-0.040071847027616334,"116":0.30624998529408476,"117":-0.2076870536997862,"118":-0.2109996667771296,"119":-0.09666738591501435,"120":-0.16878976272271468,"121":0.03926884997844155,"122":0.10245961373679095,"123":-0.07609852254926582,"124":0.24723723098555941,"125":-0.14075021275688673,"126":0.0007184389994595205,"127":-0.38073349641054854,"128":-0.37224850184986896,"129":-0.28077473441119055,"130":-0.14018240198442233,"131":-0.538567928140686,"132":-0.04151822198171966,"133":-0.17929726582610528,"134":-0.037389164930869835,"135":0.013754503761996602,"136":0.02602008214793022,"137":-0.20279584489098854,"138":-0.4110913961898002,"139":-0.12509104565450332,"140":-0.1386685593925541,"141":-0.07343648787827613,"142":0.09502382059463971,"143":0.20558823978981317,"144":0.1756776912949136,"145":0.18145182769009707,"146":-0.008767687361707613,"147":0.239624624354232,"148":0.28578600774988544,"149":-0.1707565543852186,"150":0.038918248779902145,"151":0.009153432751285048,"152":-0.09964032813802064,"153":0.07209462041634664,"154":0.11772403661572746,"155":0.18202717667722823,"156":0.23446819979889783,"157":-0.19056536714150193,"158":-0.12980178733074088,"159":-0.08899024800470776,"160":-0.28119426301144657,"161":0.07746337638189307,"162":0.001277467873285998,"163":-0.12504612953111602,"164":0.26544018617873677,"165":-0.2436453316912867,"166":-0.21464723527070595,"167":-0.24984008054928544,"168":-0.4645278975565558,"169":-0.10221839251504751,"170":-0.3264383052568128,"171":-0.5707380598937505,"172":-0.0613588411756036,"173":-0.08547108681213074,"174":-0.20513504377861846,"175":0.053750567498468335,"176":-0.022284265910846226,"177":-0.18779422536365592,"178":-0.34609655380747556,"179":-0.12904814394992725,"180":0.07760898993798217,"181":0.07530518227923759,"182":0.0019079815677200517,"183":0.2014004090159882,"184":-0.04653639543054861,"185":0.15672830017412615,"186":-0.021959913013730126,"187":0.18543496615775737,"188":0.24982028092447375,"189":-0.21289347314618004,"190":0.02858184469691594,"191":-0.0033587581748539936,"192":-0.04789612734793239,"193":0.07120843407405192,"194":0.19491231607263143,"195":-0.0591599144167017,"196":0.03309876349032521,"197":-0.1151398259911805,"198":-0.024228932671066374,"199":-0.16467314224434693}},{"sx":5,"sy":5,"depth":8,"w":{"0":0.04342186056519994,"1":-0.014877085788542998,"2":0.09363425604502595,"3":0.1405660937329734,"4":-0.008374805526918633,"5":0.18596329277796037,"6":-0.21474656538355538,"7":-0.05251804911308666,"8":-0.033318986281342444,"9":-0.02018350600891641,"10":0.1322450245961831,"11":0.08906882972595959,"12":-0.026034097676986206,"13":0.06162186722579359,"14":-0.22971907844178355,"15":-0.0760934926808156,"16":-0.0030552921160099836,"17":0.08592123726003885,"18":0.06061832320697083,"19":-0.02748224188575295,"20":-0.10782043643674205,"21":0.05214630051089757,"22":-0.07143287567292514,"23":0.0024718230262160547,"24":0.0259173315904218,"25":-0.08109577942908461,"26":0.0266210031693177,"27":-0.048389093706348654,"28":-0.16011303320575482,"29":-0.12235680229712947,"30":0.13498463474769534,"31":-0.030703594429212853,"32":-0.03631718746218158,"33":-0.151520720784112,"34":-0.05592508639160477,"35":-0.22059010733296067,"36":0.11500763488111082,"37":-0.030801248797438386,"38":0.29248992341671304,"39":-0.1779583753347574,"40":-0.29376217198608684,"41":-0.12262303949116965,"42":0.008475273610264865,"43":-0.11982934191983277,"44":-0.04881347628911417,"45":0.05476859994855178,"46":-0.06655412640131594,"47":0.029497677803272303,"48":-0.1188266238534594,"49":-0.061164848086054456,"50":-0.15922589397499765,"51":-0.14727805785466375,"52":0.05496446441118666,"53":-0.27967795277514684,"54":-0.1635063467281117,"55":-0.04336191915825993,"56":-0.11215672181103484,"57":-0.015316015650210518,"58":0.11048542200125956,"59":-0.24202700485396292,"60":0.14442301747328734,"61":-0.18187775268311548,"62":-0.09965874447830333,"63":-0.09018930110653826,"64":-0.17572955927637687,"65":-0.17790005280869625,"66":0.011347190487139362,"67":-0.13957309700428128,"68":-0.316314091228074,"69":-0.06891873331660485,"70":-0.04472238026991406,"71":-0.07552775771844426,"72":-0.12953535803573724,"73":-0.1976466357694165,"74":0.0019268263827756694,"75":-0.22376423188537212,"76":-0.013524457001579223,"77":-0.14915710951857852,"78":0.14671205772148815,"79":-0.1074018858774474,"80":0.015509396366161141,"81":-0.3181660191728746,"82":-0.28986140176768727,"83":-0.04241482477133138,"84":-0.12470641327949473,"85":-0.36442791719400136,"86":0.13730059837526298,"87":-0.022085416341900897,"88":0.10024836420914181,"89":0.06307399929480167,"90":-0.24487154960120663,"91":0.24089834909602936,"92":0.09825002202057138,"93":-0.2740035767274607,"94":-0.3468453936132276,"95":0.12885221835774707,"96":0.05032221653046309,"97":0.17835889603110835,"98":0.15356807911529344,"99":0.11735517994150949,"100":0.22420285800012876,"101":-0.16729230544204304,"102":-0.14100512935330467,"103":0.04856704880707999,"104":0.03892030277445508,"105":0.17798615655804426,"106":0.18801113565136077,"107":0.04736031783207586,"108":0.16396309699754033,"109":-0.04263758682724133,"110":-0.1915870290566371,"111":0.1118368861990352,"112":0.03863191048369661,"113":0.28353181200093985,"114":0.09310500051981825,"115":0.09176091240517141,"116":0.09220851978613258,"117":0.1582821683292793,"118":-0.35174509910795554,"119":0.0020535568307676806,"120":-0.005080228294634062,"121":-0.1920749542522408,"122":-0.2786096457929848,"123":-0.15797103436571014,"124":-0.15759924142157106,"125":-0.1897828731298395,"126":0.5364576234007863,"127":-0.05013861632343276,"128":-0.0346003799910453,"129":-0.1292497009988235,"130":-0.11231761065535412,"131":0.19052330084495114,"132":-0.2839213636516711,"133":-0.2627000267891906,"134":0.2758491921713275,"135":-0.05170589920950869,"136":0.01789273759087997,"137":0.04353102733574675,"138":-0.14141912304720178,"139":0.16790133899909007,"140":-0.13302640670860508,"141":-0.10444140505396014,"142":0.01629086595363319,"143":0.09215681854180878,"144":-0.03621020157134218,"145":0.1414489973814142,"146":0.21222444641056046,"147":0.019225724995843147,"148":-0.048868820647965355,"149":-0.17639920989214306,"150":-0.07154566836023887,"151":-0.011125213527816752,"152":0.09519181119821007,"153":0.1835066485164893,"154":0.23529851170501231,"155":0.14039484954175568,"156":-0.043171574458657824,"157":-0.03435958083913927,"158":-0.17407326316650032,"159":-0.06923410348631649,"160":-0.09150639241070081,"161":-0.571260372706455,"162":-0.16761875859227146,"163":-0.19871826401407122,"164":-0.16345659074836602,"165":-0.1557408321866764,"166":-0.05202888721559569,"167":-0.16302701989611562,"168":-0.11119498669151885,"169":-0.3591529903444477,"170":-0.1121192843664204,"171":0.002993036129502617,"172":-0.41201783208292575,"173":0.10012065237181333,"174":0.23899783968240182,"175":-0.06582695255756961,"176":0.029678320017181556,"177":-0.24449253566411602,"178":-0.0860231866357249,"179":0.039114071328920294,"180":-0.24273629232372332,"181":0.03038651093946507,"182":0.23218230690054642,"183":-0.12829981281290276,"184":0.13543545579029975,"185":-0.2481556003439291,"186":-0.17743379094503897,"187":-0.1368750802245356,"188":-0.003709408747246709,"189":0.08891133208789184,"190":0.09754196741502312,"191":-0.0735140806164161,"192":0.17245147636190125,"193":-0.10454390281595864,"194":-0.2356297777174455,"195":-0.17550554479961283,"196":-0.08619667524854142,"197":-0.1441681676428301,"198":-0.21885574884648304,"199":-0.12351656614089586}},{"sx":5,"sy":5,"depth":8,"w":{"0":-0.0023033323594562967,"1":-0.022592710205728513,"2":0.16526497632497653,"3":0.08136780547421267,"4":-0.12597029192246417,"5":-0.0730452638742751,"6":0.01095135596492325,"7":0.060635449008215936,"8":0.02030053935564129,"9":-0.04322146410419942,"10":0.2843915881680658,"11":0.11369631201902049,"12":-0.06169030833333878,"13":-0.25283189395070726,"14":0.007391604157649582,"15":-0.04650052676151774,"16":-0.06302088795206624,"17":-0.12557524218684532,"18":-0.04981302788884181,"19":0.09631814827118201,"20":-0.1511914667741001,"21":-0.20513055280385317,"22":-0.05123250699736644,"23":0.1255487694788215,"24":0.17732130167238763,"25":-0.10619134980695967,"26":0.08867215670450304,"27":0.09756009993647959,"28":-0.21751757009800443,"29":0.03748015055842454,"30":-0.24286123781379756,"31":0.07401533206587133,"32":0.13577587730056717,"33":0.03245440493611999,"34":-0.1987826418534706,"35":0.042928458200039314,"36":-0.06232424228066397,"37":0.1864503918914422,"38":-0.1813894419144783,"39":0.08009084775905899,"40":-0.15475344055851661,"41":-0.11992498999236276,"42":0.0043188774626681525,"43":-0.07525080595731666,"44":-0.08190142527397472,"45":-0.19533371828357965,"46":0.23893270633985264,"47":-0.2186932940544746,"48":-0.11887377159363838,"49":-0.1863649444308995,"50":-0.13011419227248314,"51":-0.2872434968568592,"52":-0.23001386144170438,"53":-0.05942222355621773,"54":0.12891872215446226,"55":0.002194733568753616,"56":0.07268267009817383,"57":-0.13987676989896874,"58":-0.08338816392776256,"59":-0.1511417113621979,"60":-0.04167456563998813,"61":0.2784737103406006,"62":-0.11685229157280859,"63":0.08916805481484719,"64":0.23297892346382013,"65":-0.00523638016836812,"66":0.017226173870108438,"67":-0.037764972411193434,"68":0.2318426679703974,"69":0.11117227732198945,"70":-0.21774910637028747,"71":-0.01511984083360423,"72":0.14282951622351295,"73":-0.09535809590189391,"74":-0.051055266916628796,"75":-0.06524379558244904,"76":-0.01809712764726845,"77":0.049790875347145415,"78":-0.38595806035827795,"79":0.024602036040230497,"80":-0.17638038660461816,"81":-0.16766920238334362,"82":0.03250840682363465,"83":-0.32085800267221004,"84":-0.0873032721021794,"85":-0.18355793165251358,"86":0.0928386642576427,"87":-0.1158933671908032,"88":-0.21502146170453246,"89":-0.2889528439946331,"90":-0.1296773935169074,"91":-0.2773090859333829,"92":-0.3375705831670074,"93":-0.014417929193464688,"94":-0.18803480437315948,"95":0.06938611774240136,"96":0.09026740835888276,"97":0.05936110971035058,"98":0.018790707665781874,"99":0.044783205953771964,"100":-0.1468458531232641,"101":0.10733074662387908,"102":-0.0760408753350498,"103":0.03052843144572194,"104":0.16873707963322146,"105":0.09063018846028997,"106":0.04446913014432876,"107":-0.0009764185175376508,"108":0.2713019357844035,"109":-0.22583260822333676,"110":-0.4512838841365425,"111":-0.0334107396906184,"112":-0.07455400906656018,"113":-0.125331669512907,"114":-0.014553174203144446,"115":-0.2132000116563744,"116":0.13349880380278975,"117":0.026880106365005464,"118":-0.2869444131859334,"119":0.0750508969787246,"120":-0.15087462034084742,"121":-0.05142456384985666,"122":0.03062144036069112,"123":-0.1456543420389497,"124":0.0018605633448626677,"125":-0.005659288183808585,"126":-0.20551483759096018,"127":-0.11845751850159998,"128":0.013273722327119928,"129":-0.11233518226058287,"130":-0.05654360948509257,"131":-0.18531465800651944,"132":-0.25711952457741205,"133":0.16516413923503476,"134":-0.11560615257740921,"135":0.04558903814984676,"136":0.1451095115697873,"137":0.026881364892538832,"138":-0.08650288595105643,"139":0.006754348008512095,"140":0.139133171227889,"141":-0.31625081543898154,"142":-0.3323964350211991,"143":0.2594082986426598,"144":-0.1212534753459885,"145":0.06634495454035103,"146":-0.12531653284159316,"147":0.13433557494557247,"148":0.307079433456895,"149":-0.43599339469257214,"150":-0.5310743529797697,"151":-0.03107747231466228,"152":0.12456000178399963,"153":-0.1341491427907149,"154":0.2283636551541937,"155":0.12496920512992221,"156":-0.005637917064507197,"157":0.11598972002334784,"158":-0.16151803907833437,"159":-0.025427164885432847,"160":-0.10525460466125734,"161":0.038855561489208115,"162":0.07948307135371988,"163":-0.1665227169669096,"164":-0.009372681336355942,"165":-0.006745141915121069,"166":-0.22979270874502847,"167":-0.14135885565904205,"168":0.0587827232094368,"169":0.10790014871297168,"170":-0.11480467865438114,"171":-0.23273204122087152,"172":-0.04090932154040682,"173":0.10888007058958277,"174":-0.2898183866528962,"175":0.07258323377901171,"176":-0.18597901614832557,"177":0.14008386410787926,"178":-0.22765205311544084,"179":0.11255149526498442,"180":0.10735781674110514,"181":-0.3392702728588178,"182":-0.2749135340529697,"183":0.05622242492253154,"184":-0.0891152123536733,"185":0.22249943985851334,"186":0.11604704278335963,"187":0.21173814184666817,"188":0.09666532746902103,"189":-0.14378876071814775,"190":-0.2524916486805759,"191":-0.013644541226446436,"192":0.04266822226928722,"193":0.004119947252599903,"194":0.24950127670243025,"195":0.046351406175704934,"196":-0.054494358348069705,"197":-0.0744462355074651,"198":-0.045107721139244224,"199":-0.006454777284256039}},{"sx":5,"sy":5,"depth":8,"w":{"0":0.36027280337787104,"1":0.16591805262396475,"2":0.24590485548468777,"3":0.12119941515904381,"4":0.08451373231373371,"5":0.2324327444487637,"6":0.2173780555689997,"7":0.26856038425228185,"8":0.0665482737440877,"9":0.04461829523739958,"10":0.09862216878896699,"11":-0.0022445104782981766,"12":0.18097962890211516,"13":-0.03500583973822088,"14":0.08336810971362432,"15":-0.07174709452863526,"16":-0.15211690824247653,"17":-0.09754247720631175,"18":-0.1638820524366626,"19":-0.056857582396902265,"20":0.21091267196651597,"21":0.02654023007235527,"22":-0.10733560980879821,"23":-0.26555289273346044,"24":-0.281758335273874,"25":-0.23902329945195866,"26":-0.42686738762596044,"27":-0.33263093546901357,"28":-0.07957998466475201,"29":0.22323552763625323,"30":-0.40199938860511125,"31":0.0038116655234373556,"32":-0.06737058046942646,"33":-0.16756613829461472,"34":0.02653148762822615,"35":-0.038760467239589896,"36":-0.32923003696692477,"37":0.3365326699327529,"38":-0.14624979903292584,"39":-0.04786417012858242,"40":0.19483172581569302,"41":0.006885577829393879,"42":0.1207507709262159,"43":0.23667966335302668,"44":0.3188018272028727,"45":0.04095417214001568,"46":0.05487560474261129,"47":0.07344590659133292,"48":0.02215334158487634,"49":-0.2526268748144373,"50":-0.0888066140923258,"51":0.07558890237568179,"52":0.019815919848328586,"53":0.10088461999741613,"54":-0.011641862244369345,"55":-0.16420317335736984,"56":-0.4052833218801342,"57":-0.29617408855726224,"58":-0.32081929285175736,"59":-0.18589235767076995,"60":-0.1180708931381774,"61":0.1484973205079814,"62":-0.10029885503376561,"63":-0.07890083864378014,"64":-0.01836742624884527,"65":-0.02199484265723065,"66":-0.17970380925008628,"67":-0.09494913151279517,"68":-0.36192258757262596,"69":0.1638585086120763,"70":-0.2636182025397141,"71":-0.08928563005417894,"72":0.1461989044342569,"73":0.013047040595933408,"74":-0.015037740126398448,"75":0.012982885933355094,"76":-0.18934825285245716,"77":0.16637404936395792,"78":-0.12308332497513996,"79":0.011423627238555655,"80":-0.02777258079290855,"81":-0.2550903843192313,"82":-0.2435087349041869,"83":0.15487343006392273,"84":0.08850058243472997,"85":-0.005732160851621848,"86":-0.1808772575837288,"87":-0.2197672592452994,"88":-0.27147877455103625,"89":-0.1312717988006032,"90":-0.4607712295692264,"91":-0.07790860394712522,"92":-0.01572212983724846,"93":0.33880753777613704,"94":-0.03072912400169441,"95":-0.05343318357664258,"96":-0.12633547467176934,"97":-0.054428429724351524,"98":-0.20050210999717943,"99":0.005828232825223332,"100":-0.2921187408809647,"101":0.13969233214284632,"102":-0.30957973033396147,"103":-0.01102232806703312,"104":-0.09889130284954446,"105":-0.04883616870614865,"106":-0.08765918167798196,"107":-0.09730585567896843,"108":-0.18405765701657262,"109":0.1174167456903902,"110":-0.3282299954280303,"111":0.0002783734445488984,"112":0.12307091491199611,"113":0.15537610511268665,"114":-0.021726516364967384,"115":-0.054702757752416196,"116":-0.036753897836736264,"117":0.05138389762377879,"118":-0.30147992904614546,"119":-0.3058638129793182,"120":-0.2376021965093245,"121":-0.08603038437341784,"122":-0.00887931221634216,"123":-0.023355157308645395,"124":-0.14541440361364127,"125":0.08561674485509665,"126":-0.04441929813264092,"127":-0.23100916157087667,"128":-0.22698609588505497,"129":-0.10255413167050997,"130":0.13149581167788268,"131":-0.03787930836830215,"132":-0.15928289500158285,"133":0.1382169904527942,"134":-0.2115991616986418,"135":-0.06643917399480122,"136":0.131644461978836,"137":0.09608817611702529,"138":0.02973067897131415,"139":-0.15538487733093984,"140":-0.3602518148763195,"141":0.1254983209808349,"142":-0.2968781398575359,"143":-0.10192951881247732,"144":0.09750408684098974,"145":-0.09917730850924861,"146":0.010979488098490234,"147":0.061039880865719584,"148":0.053052077432868675,"149":-0.11668280548666642,"150":-0.16026272677086822,"151":-0.037711862196537035,"152":-0.020561922204934243,"153":0.013767600180776295,"154":-0.06648170503400466,"155":0.012934457046921729,"156":0.04202216965779107,"157":-0.07542324225499346,"158":-0.2223326826456685,"159":-0.05786090469349968,"160":-0.21425022806170207,"161":0.16642726881544995,"162":0.2258283601909963,"163":-0.050353478846153765,"164":-0.11805913701132727,"165":0.1700636904177735,"166":-0.16159281790579552,"167":0.10097119673148368,"168":-0.11509065344313302,"169":0.1849434618666636,"170":0.11429084551117535,"171":-0.028137861173518824,"172":0.10540195280700268,"173":0.12186149911553469,"174":-0.29768094536729395,"175":0.1151733925107964,"176":0.06732033847130046,"177":0.06009294321001601,"178":-0.009210455836572864,"179":-0.1091430889939227,"180":0.029761293235197887,"181":0.044832180319310064,"182":-0.07243856487065009,"183":-0.06803469165307664,"184":0.06121494468940075,"185":0.06377300379603773,"186":-0.03333005313205838,"187":0.0847289733735029,"188":0.06232973536768588,"189":-0.10639046380513978,"190":0.18988910931171654,"191":-0.1877374583193036,"192":-0.007897888568051663,"193":-0.10170691912471959,"194":0.05560483090800629,"195":0.04641003154771176,"196":0.017017131042766833,"197":-0.03415400148344107,"198":0.042905303621560587,"199":-0.322844779302714}}],"biases":{"sx":1,"sy":1,"depth":16,"w":{"0":0.003939628222644942,"1":-0.15210239426975156,"2":-0.08188467540315952,"3":-0.08107233005514179,"4":-0.0941316490297853,"5":-0.036900383161664274,"6":0.07619119712421599,"7":-0.13144738226245758,"8":-0.012278565445799852,"9":0.025082227769539493,"10":0.0861167980187414,"11":0.02293643516464251,"12":0.06512831701739134,"13":0.06431880760702992,"14":0.014046695903431588,"15":0.005550661119573322}}},{"out_depth":16,"out_sx":12,"out_sy":12,"layer_type":"relu"},{"sx":3,"sy":3,"stride":3,"in_depth":16,"out_depth":16,"out_sx":4,"out_sy":4,"layer_type":"pool","pad":0},{"out_depth":10,"out_sx":1,"out_sy":1,"layer_type":"fc","num_inputs":256,"l1_decay_mul":0,"l2_decay_mul":1,"filters":[{"sx":1,"sy":1,"depth":256,"w":{"0":-0.06744032718215166,"1":-0.057221984080084165,"2":-0.000980906971074003,"3":-0.0037829355504952395,"4":-0.11618818578832092,"5":-0.06940961109314989,"6":-0.01630277151855813,"7":-0.08586114204547236,"8":-0.054394124550217644,"9":-0.005239198432283952,"10":-0.08350664071042857,"11":-0.04975326900535841,"12":-0.24236041926272894,"13":-0.11590681324432654,"14":-0.08813316718761283,"15":-0.02005522907980464,"16":-0.08173521873018098,"17":0.007883824747112024,"18":-0.1510019599760625,"19":0.051351621101506324,"20":-0.23455360155669583,"21":-0.025792633642603167,"22":-0.13604540565556128,"23":0.03836275521983976,"24":-0.1160618761568132,"25":-0.10713197769394596,"26":-0.07625464965083245,"27":-0.06278010403125914,"28":-0.19504282111272028,"29":-0.2569208999413343,"30":-0.12203226661122853,"31":-0.0033940288939809764,"32":0.004647122563586243,"33":-0.0627417235402194,"34":-0.2002725637424484,"35":-0.06575693242540602,"36":-0.030732656753330544,"37":-0.3005498064828386,"38":-0.33326003766143447,"39":-0.025130602550485263,"40":-0.189192058760123,"41":-0.17005846281759296,"42":-0.21588481419739078,"43":-0.05496633549772441,"44":-0.18321492383129723,"45":0.12796597621598624,"46":0.08679489711556451,"47":-0.016336599613046735,"48":-0.09252556019721168,"49":0.0025466506091018507,"50":-0.03577320970412333,"51":0.054651586548152845,"52":0.06926985240852757,"53":-0.14291798779845602,"54":-0.16415361373511914,"55":0.0942694274996437,"56":-0.10325703676492541,"57":0.07801399502381381,"58":-0.1721533481297087,"59":0.07900609154088696,"60":-0.09913999133977078,"61":0.08419336689270687,"62":0.08797233210031968,"63":-0.33707727973880064,"64":-0.024587316878862595,"65":-0.01688256187923962,"66":-0.1871505466440443,"67":-0.1665745003120691,"68":-0.36422610550642814,"69":-0.2598998288741235,"70":0.07362150521721443,"71":-0.40726868218816525,"72":0.08009945203513978,"73":0.08684835204317047,"74":-0.07346637183072381,"75":-0.05173287265169697,"76":-0.05304096694778466,"77":-0.18953931166163465,"78":0.011428048679207317,"79":0.04615437367095231,"80":-0.07526611977141011,"81":-0.1774817739873601,"82":-0.16679921245265467,"83":-0.16697261875158415,"84":-0.1494512082581824,"85":0.014927355994353707,"86":-0.018016331770320776,"87":-0.17700278665965843,"88":-0.021416918826478365,"89":-0.10815623697209205,"90":0.03299284361620084,"91":-0.01112560452320155,"92":-0.1131249620730685,"93":-0.4326246746791844,"94":0.1190329891132847,"95":0.10031844568537684,"96":0.01571553721638785,"97":0.06505858984673725,"98":-0.22039686669660347,"99":0.03333010828559718,"100":-0.031650990518892856,"101":0.027352939555054426,"102":-0.2932693268403193,"103":-0.1196945355731605,"104":0.025321586971494208,"105":-0.1706860244846909,"106":-0.11640939855351515,"107":-0.060971111129568475,"108":0.1693402211565931,"109":0.02272941772838695,"110":-0.2842108890193575,"111":-0.12918916049809218,"112":-0.09434474293127475,"113":-0.1129050903600806,"114":-0.264631432823361,"115":-0.013414806099211097,"116":-0.16721639801793847,"117":-0.09770636890761858,"118":-0.1570262123867864,"119":-0.21056072178436275,"120":-0.01753658315996621,"121":0.0068314121494311405,"122":0.0694477279909211,"123":-0.3014571973970725,"124":0.25730157697505346,"125":0.3084516181578512,"126":-0.07174824387727873,"127":-0.45991081962809216,"128":0.08579529712389491,"129":-0.17617845943706228,"130":-0.2256989041749535,"131":-0.2235790147823708,"132":-0.20759813033832591,"133":-0.17033998295054434,"134":0.05078335930085675,"135":-0.22909883032001024,"136":0.01668863782512506,"137":-0.2391769948714285,"138":0.12657079580434352,"139":-0.012247719925385312,"140":0.10603799510954641,"141":-0.03812556730828597,"142":0.0922279145354676,"143":0.04363763798956001,"144":-0.0982614083636021,"145":-0.48010607264863303,"146":-0.18284642624162256,"147":-0.06796916990099347,"148":0.017321029916623466,"149":0.04759676287268411,"150":-0.008133585428920374,"151":-0.15686132641063738,"152":-0.04697174108317236,"153":-0.011458958448248712,"154":0.1474796768521045,"155":-0.23879778383296618,"156":0.05235745163570198,"157":-0.03651930839197749,"158":0.11468884478482999,"159":-0.002615018684295977,"160":-0.21236297382397823,"161":-0.014854207874365338,"162":-0.0004268424467705748,"163":-0.23652967588276194,"164":0.05555255200737943,"165":0.027077451390311685,"166":0.07443109756314531,"167":0.08873862198765449,"168":0.01925138608216236,"169":0.014762849727343251,"170":-0.15002209179390408,"171":0.029640297363550786,"172":0.01143818993698403,"173":0.025819875868887246,"174":-0.1094323172831853,"175":0.022883183032884346,"176":0.03130480422417778,"177":0.03607256564245464,"178":0.05762001540233611,"179":-0.050972501017554336,"180":-0.27111876369821003,"181":0.13185258370905817,"182":0.1067995817067317,"183":-0.33973807195865113,"184":0.19945049339512172,"185":-0.0519284249865107,"186":0.032281443200022276,"187":0.06892875700271145,"188":0.06674660483313045,"189":-0.06738136363482884,"190":0.08590158925746365,"191":0.01624974291050335,"192":0.01623375657683225,"193":-0.08276215332042887,"194":-0.21523786321358956,"195":0.1434852381517625,"196":-0.23731924716025965,"197":-0.12047489105997229,"198":0.014217402775051596,"199":-0.002886740419086964,"200":0.18610460128034603,"201":-0.12663092238117968,"202":-0.037295292470036205,"203":-0.03737565991935504,"204":0.12434159398140264,"205":-0.04748928929716466,"206":-0.033030450347671325,"207":-0.16857035478135865,"208":-0.08780447859854179,"209":-0.1585724007015062,"210":0.03077262348522787,"211":0.036568807402385654,"212":-0.18468141317980968,"213":-0.3738391999688032,"214":-0.17251968402170945,"215":-0.06310594937388925,"216":0.0806211831253912,"217":-0.05088790340753643,"218":-0.3384514669216026,"219":-0.06869977432186797,"220":-0.13916950467979936,"221":0.13609373806174824,"222":-0.3446996811040344,"223":-0.001955500487020609,"224":0.021859684415638844,"225":-0.019710445822748467,"226":0.06330022396222659,"227":0.022659677846080823,"228":-0.1251779462602947,"229":-0.10155542863860562,"230":-0.12326234227923748,"231":-0.019834272438594362,"232":-0.2204869946135238,"233":-0.06724728837596441,"234":-0.34400997495311775,"235":0.16213048901007876,"236":-0.5185007974684103,"237":-0.06363968352674061,"238":-0.2562624486724184,"239":0.21345809777442895,"240":-0.2806833262550194,"241":0.0439405798696699,"242":0.08699177408435516,"243":-0.0991344195894103,"244":-0.0010818957697701676,"245":-0.006767608169066098,"246":-0.12987422874031443,"247":-0.0021938345355480837,"248":-0.0052349359497029565,"249":-0.3436038854416366,"250":-0.18805862271994972,"251":-0.0391244705251438,"252":-0.13585182268299084,"253":-0.25906907423090203,"254":-0.1041428655252709,"255":0.09316758021536153}},{"sx":1,"sy":1,"depth":256,"w":{"0":-0.0716050930090828,"1":-0.27111225489971896,"2":-0.1418260335633147,"3":-0.2044954402302324,"4":-0.008562668799795146,"5":0.22279268167365543,"6":-0.07808702220628255,"7":0.026509498992321072,"8":-0.25917567671455854,"9":-0.1261821056793696,"10":-0.030469243091521964,"11":-0.10628701432789811,"12":-0.18382458071559196,"13":-0.12273359365166234,"14":-0.15525244558620166,"15":-0.08383562922213031,"16":-0.06920603027445722,"17":-0.03129893924038534,"18":-0.2839485072929626,"19":-0.04767108738127359,"20":-0.1532272156700365,"21":-0.13758868401134672,"22":-0.1329330176747996,"23":-0.17811746013656624,"24":0.23033016881742285,"25":-0.36034420182436727,"26":0.14654709628080148,"27":-0.17949000114389457,"28":0.02391037918338612,"29":0.05224840123869553,"30":0.11355475028284324,"31":-0.06542097548372713,"32":-0.1959313261888907,"33":-0.12927728076116513,"34":-0.15240154368354814,"35":-0.05747020150823482,"36":0.256769827072822,"37":0.19951238413632075,"38":0.03862718164217599,"39":-0.049028059421806366,"40":-0.008279374342069256,"41":-0.0328025881273714,"42":0.23179416099300532,"43":-0.021461096307008317,"44":0.17139546106536305,"45":-0.09665679394226144,"46":0.18830390130392743,"47":0.05600873412045801,"48":0.13233979096990275,"49":-0.10971625895267116,"50":-0.15393713181924104,"51":-0.22984852699543068,"52":0.07750528395331813,"53":-0.008158624354356027,"54":-0.02972559833242316,"55":-0.18906956060820446,"56":-0.1127149351882489,"57":-0.10126072318595293,"58":0.13505943282465444,"59":-0.2120392905190062,"60":-0.013354168170266108,"61":0.025882230983748727,"62":0.2855421715087964,"63":0.164067587492006,"64":-0.09570604029905017,"65":0.03976872579874594,"66":-0.3084658787725072,"67":-0.09084754483358355,"68":-0.16423491725735875,"69":-0.0953703783993013,"70":-0.018474120232105297,"71":-0.028334609758637955,"72":-0.28401058635498566,"73":-0.12382081394865303,"74":-0.02853019312086484,"75":-0.441370515621037,"76":-0.48990617664904706,"77":-0.12393313575048975,"78":-0.3154784807979357,"79":-0.16830737816104435,"80":-0.2403849240206379,"81":-0.0032512668387331026,"82":-0.1942250877052525,"83":-0.13986575010686045,"84":-0.11596403750317388,"85":-0.16774725464339657,"86":-0.06242233605380027,"87":-0.09302350434949681,"88":0.14556822198127922,"89":-0.05043328626368099,"90":-0.04583526778178148,"91":-0.19625795254785874,"92":-0.17411440949825763,"93":-0.12750661174159122,"94":-0.27719503362306963,"95":-0.09348564482869215,"96":-0.23203732742220445,"97":-0.03909973332803999,"98":-0.2647880564367152,"99":-0.16785614191402753,"100":0.2948293740980821,"101":0.0072863232523771365,"102":-0.05485193205538619,"103":-0.17803453822482176,"104":0.011694692757724518,"105":-0.07953486077803007,"106":0.15707002196323136,"107":0.00229602466854216,"108":0.05574050486975649,"109":-0.0948295026856836,